<?xml version="1.0"?>
<opencv_storage>
<cascade>
  <stageType>BOOST</stageType>
  <featureType>HAAR</featureType>
  <height>20</height>
  <width>20</width>
  <stageParams>
    <boostType>GAB</boostType>
    <minHitRate>9.9500000476837158e-01</minHitRate>
    <maxFalseAlarm>5.0000000000000000e-01</maxFalseAlarm>
    <weightTrimRate>9.4999999999999996e-01</weightTrimRate>
    <maxDepth>1</maxDepth>
    <maxWeakCount>100</maxWeakCount></stageParams>
  <featureParams>
    <maxCatCount>0</maxCatCount>
    <featSize>1</featSize>
    <mode>BASIC</mode></featureParams>
  <stageNum>10</stageNum>
  <stages>
    <!-- stage 0 -->
    <_>
      <maxWeakCount>28</maxWeakCount>
      <stageThreshold>-9.1797888278961182e-01</stageThreshold>
      <weakClassifiers>
        <_>
          <internalNodes>
            0 -1 102 6.2381629832088947e-03</internalNodes>
          <leafValues>
            5.1851850003004074e-02 6.9999998807907104e-01</leafValues></_>
        <_>
          <internalNodes>
            0 -1 152 -1.4808693900704384e-02</internalNodes>
          <leafValues>
            4.2197999358177185e-01 -1.8187798559665680e-01</leafValues></_>
        <_>
          <internalNodes>
            0 -1 257 9.6349971136078238e-04</internalNodes>
          <leafValues>
            -1.6927060484886169e-01 4.6387559175491333e-01</leafValues></_>
        <_>
          <internalNodes>
            0 -1 173 -7.1030813269317150e-03</internalNodes>
          <leafValues>
            4.6263140439987183e-01 -1.7487680912017822e-01</leafValues></_>
        <_>
          <internalNodes>
            0 -1 255 -1.6390858218073845e-02</internalNodes>
          <leafValues>
            4.2825999855995178e-01 -1.6528117656707764e-01</leafValues></_>
        <_>
          <internalNodes>
            0 -1 144 3.0744485557079315e-03</internalNodes>
          <leafValues>
            -1.5912657976150513e-01 3.8312947750091553e-01</leafValues></_>
        <_>
          <internalNodes>
            0 -1 29 -1.8107094801962376e-03</internalNodes>
          <leafValues>
            2.9128485918045044e-01 -2.1519637107849121e-01</leafValues></_>
        <_>
          <internalNodes>
            0 -1 301 3.4392245579510927e-03</internalNodes>
          <leafValues>
            -1.3625663518905640e-01 4.7657659649848938e-01</leafValues></_>
        <_>
          <internalNodes>
            0 -1 137 9.0917479246854782e-03</internalNodes>
          <leafValues>
            -1.5670061111450195e-01 4.0750956535339355e-01</leafValues></_>
        <_>
          <internalNodes>
            0 -1 218 -8.1012677401304245e-03</internalNodes>
          <leafValues>
            -6.5196460485458374e-01 9.8717585206031799e-02</leafValues></_>
        <_>
          <internalNodes>
            0 -1 200 -1.0582503164187074e-03</internalNodes>
          <leafValues>
            4.0176069736480713e-01 -1.4048403501510620e-01</leafValues></_>
        <_>
          <internalNodes>
            0 -1 84 -4.2825383134186268e-03</internalNodes>
          <leafValues>
            3.0998972058296204e-01 -1.5541104972362518e-01</leafValues></_>
        <_>
          <internalNodes>
            0 -1 249 7.2754537686705589e-03</internalNodes>
          <leafValues>
            -5.5592648684978485e-02 6.3586217164993286e-01</leafValues></_>
        <_>
          <internalNodes>
            0 -1 97 7.6109012588858604e-03</internalNodes>
          <leafValues>
            1.3830913603305817e-01 -3.6584037542343140e-01</leafValues></_>
        <_>
          <internalNodes>
            0 -1 235 -2.7645025402307510e-03</internalNodes>
          <leafValues>
            3.5474580526351929e-01 -1.4660780131816864e-01</leafValues></_>
        <_>
          <internalNodes>
            0 -1 252 1.3289673253893852e-02</internalNodes>
          <leafValues>
            -6.5485261380672455e-02 6.0810816287994385e-01</leafValues></_>
        <_>
          <internalNodes>
            0 -1 113 -8.1907268613576889e-03</internalNodes>
          <leafValues>
            4.5130780339241028e-01 -1.2502421438694000e-01</leafValues></_>
        <_>
          <internalNodes>
            0 -1 50 1.0424002539366484e-03</internalNodes>
          <leafValues>
            2.2083555161952972e-01 -2.4526469409465790e-01</leafValues></_>
        <_>
          <internalNodes>
            0 -1 72 -1.1009557638317347e-03</internalNodes>
          <leafValues>
            2.5320196151733398e-01 -2.1720819175243378e-01</leafValues></_>
        <_>
          <internalNodes>
            0 -1 77 -1.1312677524983883e-03</internalNodes>
          <leafValues>
            -3.6524921655654907e-01 1.4768572151660919e-01</leafValues></_>
        <_>
          <internalNodes>
            0 -1 339 8.3302630810067058e-04</internalNodes>
          <leafValues>
            -1.7909127473831177e-01 2.8417381644248962e-01</leafValues></_>
        <_>
          <internalNodes>
            0 -1 185 -5.2679949440062046e-03</internalNodes>
          <leafValues>
            -5.6840658187866211e-01 9.7549214959144592e-02</leafValues></_>
        <_>
          <internalNodes>
            0 -1 261 -2.2303690202534199e-03</internalNodes>
          <leafValues>
            2.0455388724803925e-01 -2.4165235459804535e-01</leafValues></_>
        <_>
          <internalNodes>
            0 -1 322 1.1313462164252996e-03</internalNodes>
          <leafValues>
            -1.1500604450702667e-01 4.3599879741668701e-01</leafValues></_>
        <_>
          <internalNodes>
            0 -1 130 1.1481181718409061e-03</internalNodes>
          <leafValues>
            -1.6682027280330658e-01 2.9303279519081116e-01</leafValues></_>
        <_>
          <internalNodes>
            0 -1 132 -9.3605145812034607e-03</internalNodes>
          <leafValues>
            3.0787777900695801e-01 -1.5915000438690186e-01</leafValues></_>
        <_>
          <internalNodes>
            0 -1 225 -2.2647739388048649e-03</internalNodes>
          <leafValues>
            2.9358005523681641e-01 -1.8122294545173645e-01</leafValues></_>
        <_>
          <internalNodes>
            0 -1 309 3.6435071378946304e-03</internalNodes>
          <leafValues>
            1.1122252047061920e-01 -5.0211143493652344e-01</leafValues></_></weakClassifiers></_>
    <!-- stage 1 -->
    <_>
      <maxWeakCount>31</maxWeakCount>
      <stageThreshold>-8.1807345151901245e-01</stageThreshold>
      <weakClassifiers>
        <_>
          <internalNodes>
            0 -1 180 -7.7362908050417900e-03</internalNodes>
          <leafValues>
            5.4964536428451538e-01 5.8309037238359451e-02</leafValues></_>
        <_>
          <internalNodes>
            0 -1 217 3.9417305961251259e-03</internalNodes>
          <leafValues>
            -1.7376013100147247e-01 3.9821204543113708e-01</leafValues></_>
        <_>
          <internalNodes>
            0 -1 94 -5.2227610722184181e-03</internalNodes>
          <leafValues>
            3.7085971236228943e-01 -1.6860520839691162e-01</leafValues></_>
        <_>
          <internalNodes>
            0 -1 129 4.5778718777000904e-03</internalNodes>
          <leafValues>
            -2.3759034276008606e-01 2.8164640069007874e-01</leafValues></_>
        <_>
          <internalNodes>
            0 -1 36 9.9457777105271816e-04</internalNodes>
          <leafValues>
            -1.9747790694236755e-01 2.6939046382904053e-01</leafValues></_>
        <_>
          <internalNodes>
            0 -1 42 -7.6428556349128485e-04</internalNodes>
          <leafValues>
            3.2033556699752808e-01 -1.6985325515270233e-01</leafValues></_>
        <_>
          <internalNodes>
            0 -1 318 2.3788074031472206e-03</internalNodes>
          <leafValues>
            9.0987458825111389e-02 -5.9889674186706543e-01</leafValues></_>
        <_>
          <internalNodes>
            0 -1 169 1.1916299350559711e-02</internalNodes>
          <leafValues>
            8.0216884613037109e-02 -5.7760930061340332e-01</leafValues></_>
        <_>
          <internalNodes>
            0 -1 304 1.7438249662518501e-02</internalNodes>
          <leafValues>
            -1.0830374062061310e-01 4.7433391213417053e-01</leafValues></_>
        <_>
          <internalNodes>
            0 -1 240 -6.4442027360200882e-03</internalNodes>
          <leafValues>
            3.5454520583152771e-01 -1.4457227289676666e-01</leafValues></_>
        <_>
          <internalNodes>
            0 -1 268 1.0755121707916260e-02</internalNodes>
          <leafValues>
            -1.0909854620695114e-01 3.8684666156768799e-01</leafValues></_>
        <_>
          <internalNodes>
            0 -1 245 -3.5364381037652493e-03</internalNodes>
          <leafValues>
            3.2594156265258789e-01 -1.5690927207469940e-01</leafValues></_>
        <_>
          <internalNodes>
            0 -1 2 -3.4108030796051025e-01</internalNodes>
          <leafValues>
            5.5784046649932861e-01 -7.0502460002899170e-02</leafValues></_>
        <_>
          <internalNodes>
            0 -1 37 -2.8538648039102554e-03</internalNodes>
          <leafValues>
            2.9225042462348938e-01 -1.4709025621414185e-01</leafValues></_>
        <_>
          <internalNodes>
            0 -1 273 -3.1743696890771389e-03</internalNodes>
          <leafValues>
            -7.4921518564224243e-01 5.6513164192438126e-02</leafValues></_>
        <_>
          <internalNodes>
            0 -1 25 -7.2225525975227356e-02</internalNodes>
          <leafValues>
            4.8826947808265686e-01 -9.3928597867488861e-02</leafValues></_>
        <_>
          <internalNodes>
            0 -1 57 -9.2884059995412827e-03</internalNodes>
          <leafValues>
            3.8310113549232483e-01 -1.1825674772262573e-01</leafValues></_>
        <_>
          <internalNodes>
            0 -1 123 -4.3930802494287491e-03</internalNodes>
          <leafValues>
            3.6195370554924011e-01 -1.3558052480220795e-01</leafValues></_>
        <_>
          <internalNodes>
            0 -1 133 6.9318292662501335e-03</internalNodes>
          <leafValues>
            -9.0957209467887878e-02 5.3284668922424316e-01</leafValues></_>
        <_>
          <internalNodes>
            0 -1 121 1.2383826076984406e-02</internalNodes>
          <leafValues>
            8.2058899104595184e-02 -6.5082424879074097e-01</leafValues></_>
        <_>
          <internalNodes>
            0 -1 4 2.9970218893140554e-03</internalNodes>
          <leafValues>
            6.5062984824180603e-02 -6.9050222635269165e-01</leafValues></_>
        <_>
          <internalNodes>
            0 -1 328 2.8258936945348978e-03</internalNodes>
          <leafValues>
            8.1143081188201904e-02 -5.3280460834503174e-01</leafValues></_>
        <_>
          <internalNodes>
            0 -1 30 4.3474584817886353e-03</internalNodes>
          <leafValues>
            8.3133153617382050e-02 -4.4819387793540955e-01</leafValues></_>
        <_>
          <internalNodes>
            0 -1 95 -3.5400148481130600e-03</internalNodes>
          <leafValues>
            3.4248256683349609e-01 -1.4050044119358063e-01</leafValues></_>
        <_>
          <internalNodes>
            0 -1 68 4.0872474201023579e-03</internalNodes>
          <leafValues>
            6.4545728266239166e-02 -6.9522291421890259e-01</leafValues></_>
        <_>
          <internalNodes>
            0 -1 45 1.4844380319118500e-02</internalNodes>
          <leafValues>
            -1.1759732663631439e-01 4.0486022830009460e-01</leafValues></_>
        <_>
          <internalNodes>
            0 -1 79 5.2380049601197243e-03</internalNodes>
          <leafValues>
            -1.6164195537567139e-01 2.9811087250709534e-01</leafValues></_>
        <_>
          <internalNodes>
            0 -1 220 4.1567995212972164e-03</internalNodes>
          <leafValues>
            7.5292430818080902e-02 -6.8337810039520264e-01</leafValues></_>
        <_>
          <internalNodes>
            0 -1 330 -7.9791545867919922e-03</internalNodes>
          <leafValues>
            5.0165748596191406e-01 -9.8793633282184601e-02</leafValues></_>
        <_>
          <internalNodes>
            0 -1 159 -3.4567364491522312e-04</internalNodes>
          <leafValues>
            -2.3136205971240997e-01 2.0804305374622345e-01</leafValues></_>
        <_>
          <internalNodes>
            0 -1 220 -4.4564353302121162e-03</internalNodes>
          <leafValues>
            -7.4026703834533691e-01 5.4592158645391464e-02</leafValues></_></weakClassifiers></_>
    <!-- stage 2 -->
    <_>
      <maxWeakCount>31</maxWeakCount>
      <stageThreshold>-7.3873859643936157e-01</stageThreshold>
      <weakClassifiers>
        <_>
          <internalNodes>
            0 -1 48 -1.0172205045819283e-02</internalNodes>
          <leafValues>
            6.3809525966644287e-01 1.5935829281806946e-01</leafValues></_>
        <_>
          <internalNodes>
            0 -1 308 -1.1219019442796707e-01</internalNodes>
          <leafValues>
            7.9541283845901489e-01 -3.1428121030330658e-02</leafValues></_>
        <_>
          <internalNodes>
            0 -1 303 8.6995895253494382e-04</internalNodes>
          <leafValues>
            -2.0921012759208679e-01 2.1269243955612183e-01</leafValues></_>
        <_>
          <internalNodes>
            0 -1 206 -2.3314543796004727e-05</internalNodes>
          <leafValues>
            2.0367224514484406e-01 -2.2811464965343475e-01</leafValues></_>
        <_>
          <internalNodes>
            0 -1 111 1.0594172636047006e-03</internalNodes>
          <leafValues>
            -1.7465232312679291e-01 3.0416479706764221e-01</leafValues></_>
        <_>
          <internalNodes>
            0 -1 338 -1.4998801052570343e-03</internalNodes>
          <leafValues>
            -3.4011721611022949e-01 1.6851699352264404e-01</leafValues></_>
        <_>
          <internalNodes>
            0 -1 186 7.8221773728728294e-03</internalNodes>
          <leafValues>
            -1.5295134484767914e-01 2.8236696124076843e-01</leafValues></_>
        <_>
          <internalNodes>
            0 -1 141 3.8531087338924408e-02</internalNodes>
          <leafValues>
            -8.4356300532817841e-02 5.1603221893310547e-01</leafValues></_>
        <_>
          <internalNodes>
            0 -1 290 -3.0771137680858374e-03</internalNodes>
          <leafValues>
            -5.5104666948318481e-01 8.4940142929553986e-02</leafValues></_>
        <_>
          <internalNodes>
            0 -1 265 5.9309089556336403e-03</internalNodes>
          <leafValues>
            3.5312183201313019e-02 -8.8147592544555664e-01</leafValues></_>
        <_>
          <internalNodes>
            0 -1 295 4.2217313311994076e-03</internalNodes>
          <leafValues>
            -2.3440586030483246e-01 1.7675775289535522e-01</leafValues></_>
        <_>
          <internalNodes>
            0 -1 284 -6.1612762510776520e-03</internalNodes>
          <leafValues>
            3.6657828092575073e-01 -1.2645417451858521e-01</leafValues></_>
        <_>
          <internalNodes>
            0 -1 277 2.2408531978726387e-02</internalNodes>
          <leafValues>
            -1.1239434033632278e-01 3.9120641350746155e-01</leafValues></_>
        <_>
          <internalNodes>
            0 -1 248 1.9055998418480158e-03</internalNodes>
          <leafValues>
            8.8672637939453125e-02 -4.8159903287887573e-01</leafValues></_>
        <_>
          <internalNodes>
            0 -1 236 -1.0023743379861116e-03</internalNodes>
          <leafValues>
            -3.5289502143859863e-01 1.1943384259939194e-01</leafValues></_>
        <_>
          <internalNodes>
            0 -1 91 -1.1422747373580933e-01</internalNodes>
          <leafValues>
            6.6912239789962769e-01 -6.0304559767246246e-02</leafValues></_>
        <_>
          <internalNodes>
            0 -1 272 3.9820922538638115e-03</internalNodes>
          <leafValues>
            -1.2531204521656036e-01 3.1862062215805054e-01</leafValues></_>
        <_>
          <internalNodes>
            0 -1 172 5.2391681820154190e-03</internalNodes>
          <leafValues>
            -1.0128770023584366e-01 4.0310180187225342e-01</leafValues></_>
        <_>
          <internalNodes>
            0 -1 178 -1.5381111297756433e-03</internalNodes>
          <leafValues>
            2.2158654034137726e-01 -1.8088541924953461e-01</leafValues></_>
        <_>
          <internalNodes>
            0 -1 16 -1.0142659768462181e-02</internalNodes>
          <leafValues>
            3.0531546473503113e-01 -1.3907423615455627e-01</leafValues></_>
        <_>
          <internalNodes>
            0 -1 150 -2.7130197267979383e-03</internalNodes>
          <leafValues>
            -6.1163842678070068e-01 8.2726769149303436e-02</leafValues></_>
        <_>
          <internalNodes>
            0 -1 334 -1.5988110098987818e-03</internalNodes>
          <leafValues>
            -4.7135210037231445e-01 8.5502319037914276e-02</leafValues></_>
        <_>
          <internalNodes>
            0 -1 11 5.5541060864925385e-03</internalNodes>
          <leafValues>
            6.1648048460483551e-02 -7.3616594076156616e-01</leafValues></_>
        <_>
          <internalNodes>
            0 -1 332 -3.5961354151368141e-03</internalNodes>
          <leafValues>
            4.4344848394393921e-01 -1.0704202204942703e-01</leafValues></_>
        <_>
          <internalNodes>
            0 -1 82 -1.2138341553509235e-02</internalNodes>
          <leafValues>
            5.6142187118530273e-01 -7.7559441328048706e-02</leafValues></_>
        <_>
          <internalNodes>
            0 -1 193 -3.9779599756002426e-03</internalNodes>
          <leafValues>
            -3.3245050907135010e-01 1.3372279703617096e-01</leafValues></_>
        <_>
          <internalNodes>
            0 -1 214 1.7433069646358490e-02</internalNodes>
          <leafValues>
            1.0572780668735504e-01 -4.1368356347084045e-01</leafValues></_>
        <_>
          <internalNodes>
            0 -1 262 -1.9253585487604141e-03</internalNodes>
          <leafValues>
            4.0406909584999084e-01 -1.1575359106063843e-01</leafValues></_>
        <_>
          <internalNodes>
            0 -1 96 -1.4642290771007538e-02</internalNodes>
          <leafValues>
            -6.3526862859725952e-01 6.7780286073684692e-02</leafValues></_>
        <_>
          <internalNodes>
            0 -1 196 4.7046532854437828e-03</internalNodes>
          <leafValues>
            1.3969482481479645e-01 -3.0096265673637390e-01</leafValues></_>
        <_>
          <internalNodes>
            0 -1 226 -2.9003808740526438e-03</internalNodes>
          <leafValues>
            4.5480740070343018e-01 -9.7282268106937408e-02</leafValues></_></weakClassifiers></_>
    <!-- stage 3 -->
    <_>
      <maxWeakCount>32</maxWeakCount>
      <stageThreshold>-5.9689241647720337e-01</stageThreshold>
      <weakClassifiers>
        <_>
          <internalNodes>
            0 -1 175 1.5712552703917027e-03</internalNodes>
          <leafValues>
            9.7938142716884613e-02 5.7805907726287842e-01</leafValues></_>
        <_>
          <internalNodes>
            0 -1 27 -7.5120637193322182e-03</internalNodes>
          <leafValues>
            3.9530107378959656e-01 -1.2304551899433136e-01</leafValues></_>
        <_>
          <internalNodes>
            0 -1 117 7.7108303084969521e-03</internalNodes>
          <leafValues>
            -1.1582307517528534e-01 3.9550435543060303e-01</leafValues></_>
        <_>
          <internalNodes>
            0 -1 40 7.9464435111731291e-04</internalNodes>
          <leafValues>
            -1.9469948112964630e-01 2.9167389869689941e-01</leafValues></_>
        <_>
          <internalNodes>
            0 -1 275 -6.7222013603895903e-04</internalNodes>
          <leafValues>
            1.9840706884860992e-01 -2.2275970876216888e-01</leafValues></_>
        <_>
          <internalNodes>
            0 -1 138 5.2934549748897552e-03</internalNodes>
          <leafValues>
            -1.4165845513343811e-01 3.4184980392456055e-01</leafValues></_>
        <_>
          <internalNodes>
            0 -1 179 -2.2169926669448614e-03</internalNodes>
          <leafValues>
            2.0142093300819397e-01 -2.1924586594104767e-01</leafValues></_>
        <_>
          <internalNodes>
            0 -1 17 -2.3838220164179802e-02</internalNodes>
          <leafValues>
            6.1924022436141968e-01 -7.7006153762340546e-02</leafValues></_>
        <_>
          <internalNodes>
            0 -1 112 7.3026344180107117e-02</internalNodes>
          <leafValues>
            8.8206164538860321e-02 -5.5659097433090210e-01</leafValues></_>
        <_>
          <internalNodes>
            0 -1 54 2.0708862692117691e-02</internalNodes>
          <leafValues>
            -1.5128964185714722e-01 2.9713153839111328e-01</leafValues></_>
        <_>
          <internalNodes>
            0 -1 52 -1.0159501805901527e-02</internalNodes>
          <leafValues>
            3.3732682466506958e-01 -1.3974145054817200e-01</leafValues></_>
        <_>
          <internalNodes>
            0 -1 340 4.9334382638335228e-03</internalNodes>
          <leafValues>
            -6.5151400864124298e-02 5.1907408237457275e-01</leafValues></_>
        <_>
          <internalNodes>
            0 -1 15 -1.3013947755098343e-02</internalNodes>
          <leafValues>
            3.0668729543685913e-01 -1.2427261471748352e-01</leafValues></_>
        <_>
          <internalNodes>
            0 -1 167 1.2621273286640644e-02</internalNodes>
          <leafValues>
            6.9840416312217712e-02 -6.0508245229721069e-01</leafValues></_>
        <_>
          <internalNodes>
            0 -1 166 -8.1928782165050507e-03</internalNodes>
          <leafValues>
            2.3872968554496765e-01 -1.7282260954380035e-01</leafValues></_>
        <_>
          <internalNodes>
            0 -1 146 -9.8670329898595810e-03</internalNodes>
          <leafValues>
            3.9100638031959534e-01 -1.1886499822139740e-01</leafValues></_>
        <_>
          <internalNodes>
            0 -1 280 -2.7886880561709404e-02</internalNodes>
          <leafValues>
            4.4198527932167053e-01 -8.5716970264911652e-02</leafValues></_>
        <_>
          <internalNodes>
            0 -1 343 -4.5035025104880333e-03</internalNodes>
          <leafValues>
            2.7422440052032471e-01 -1.4995166659355164e-01</leafValues></_>
        <_>
          <internalNodes>
            0 -1 288 3.6513591185212135e-03</internalNodes>
          <leafValues>
            -1.6247871518135071e-01 2.4066051840782166e-01</leafValues></_>
        <_>
          <internalNodes>
            0 -1 204 -8.0050965771079063e-03</internalNodes>
          <leafValues>
            -7.3025876283645630e-01 5.9661425650119781e-02</leafValues></_>
        <_>
          <internalNodes>
            0 -1 90 -1.7227077856659889e-02</internalNodes>
          <leafValues>
            3.2105889916419983e-01 -1.2995029985904694e-01</leafValues></_>
        <_>
          <internalNodes>
            0 -1 89 -5.4008038714528084e-03</internalNodes>
          <leafValues>
            -4.7137632966041565e-01 8.5522845387458801e-02</leafValues></_>
        <_>
          <internalNodes>
            0 -1 131 4.3754749931395054e-03</internalNodes>
          <leafValues>
            -1.3441841304302216e-01 2.8982940316200256e-01</leafValues></_>
        <_>
          <internalNodes>
            0 -1 342 4.9738204106688499e-03</internalNodes>
          <leafValues>
            7.1544818580150604e-02 -5.2976977825164795e-01</leafValues></_>
        <_>
          <internalNodes>
            0 -1 233 2.3181736469268799e-03</internalNodes>
          <leafValues>
            -1.7527820169925690e-01 1.9973880052566528e-01</leafValues></_>
        <_>
          <internalNodes>
            0 -1 67 -2.6637837290763855e-02</internalNodes>
          <leafValues>
            -3.2434737682342529e-01 1.0835468769073486e-01</leafValues></_>
        <_>
          <internalNodes>
            0 -1 195 1.5663411468267441e-02</internalNodes>
          <leafValues>
            4.8327147960662842e-02 -7.7910828590393066e-01</leafValues></_>
        <_>
          <internalNodes>
            0 -1 19 -6.3818292692303658e-03</internalNodes>
          <leafValues>
            -3.5393708944320679e-01 9.5824249088764191e-02</leafValues></_>
        <_>
          <internalNodes>
            0 -1 22 1.6749484930187464e-03</internalNodes>
          <leafValues>
            -1.7980374395847321e-01 2.1395370364189148e-01</leafValues></_>
        <_>
          <internalNodes>
            0 -1 177 -4.3544312939047813e-03</internalNodes>
          <leafValues>
            4.3541067838668823e-01 -1.0858760774135590e-01</leafValues></_>
        <_>
          <internalNodes>
            0 -1 157 -2.1378709934651852e-03</internalNodes>
          <leafValues>
            2.4183064699172974e-01 -1.5996661782264709e-01</leafValues></_>
        <_>
          <internalNodes>
            0 -1 136 -4.7247372567653656e-03</internalNodes>
          <leafValues>
            3.3005961775779724e-01 -1.2887085974216461e-01</leafValues></_></weakClassifiers></_>
    <!-- stage 4 -->
    <_>
      <maxWeakCount>34</maxWeakCount>
      <stageThreshold>-6.3657981157302856e-01</stageThreshold>
      <weakClassifiers>
        <_>
          <internalNodes>
            0 -1 341 2.6170942001044750e-03</internalNodes>
          <leafValues>
            9.2198580503463745e-02 5.2293580770492554e-01</leafValues></_>
        <_>
          <internalNodes>
            0 -1 31 -2.0293993875384331e-03</internalNodes>
          <leafValues>
            3.6246952414512634e-01 -1.1405533552169800e-01</leafValues></_>
        <_>
          <internalNodes>
            0 -1 156 1.2290060520172119e-02</internalNodes>
          <leafValues>
            1.1984071135520935e-01 -3.8114410638809204e-01</leafValues></_>
        <_>
          <internalNodes>
            0 -1 264 4.6923859044909477e-03</internalNodes>
          <leafValues>
            -2.0561823248863220e-01 2.6196348667144775e-01</leafValues></_>
        <_>
          <internalNodes>
            0 -1 110 6.6405888646841049e-03</internalNodes>
          <leafValues>
            -1.2339799851179123e-01 4.2671048641204834e-01</leafValues></_>
        <_>
          <internalNodes>
            0 -1 12 -3.8893395103514194e-03</internalNodes>
          <leafValues>
            -6.7227107286453247e-01 5.3627274930477142e-02</leafValues></_>
        <_>
          <internalNodes>
            0 -1 70 7.2230673395097256e-03</internalNodes>
          <leafValues>
            8.2761019468307495e-02 -4.9181714653968811e-01</leafValues></_>
        <_>
          <internalNodes>
            0 -1 74 5.9272919315844774e-04</internalNodes>
          <leafValues>
            -1.5980829298496246e-01 2.4897341430187225e-01</leafValues></_>
        <_>
          <internalNodes>
            0 -1 23 -2.9103308916091919e-03</internalNodes>
          <leafValues>
            1.8692028522491455e-01 -2.1160900592803955e-01</leafValues></_>
        <_>
          <internalNodes>
            0 -1 76 -6.8855690187774599e-05</internalNodes>
          <leafValues>
            2.1716099977493286e-01 -1.6390319168567657e-01</leafValues></_>
        <_>
          <internalNodes>
            0 -1 259 -2.2681369446218014e-03</internalNodes>
          <leafValues>
            3.1872156262397766e-01 -1.1903996020555496e-01</leafValues></_>
        <_>
          <internalNodes>
            0 -1 210 -2.8199695050716400e-02</internalNodes>
          <leafValues>
            -6.9085198640823364e-01 5.7519175112247467e-02</leafValues></_>
        <_>
          <internalNodes>
            0 -1 176 3.2202461734414101e-03</internalNodes>
          <leafValues>
            -1.2770691514015198e-01 2.8891047835350037e-01</leafValues></_>
        <_>
          <internalNodes>
            0 -1 207 4.9205578397959471e-04</internalNodes>
          <leafValues>
            1.4510449767112732e-01 -2.3621504008769989e-01</leafValues></_>
        <_>
          <internalNodes>
            0 -1 285 8.7001975625753403e-03</internalNodes>
          <leafValues>
            -1.1033585667610168e-01 3.1147974729537964e-01</leafValues></_>
        <_>
          <internalNodes>
            0 -1 118 -5.0141350366175175e-03</internalNodes>
          <leafValues>
            4.1992247104644775e-01 -9.1643355786800385e-02</leafValues></_>
        <_>
          <internalNodes>
            0 -1 66 2.0134935155510902e-02</internalNodes>
          <leafValues>
            -4.7231692820787430e-02 6.7376893758773804e-01</leafValues></_>
        <_>
          <internalNodes>
            0 -1 120 1.7064286395907402e-02</internalNodes>
          <leafValues>
            7.3921799659729004e-02 -5.6864303350448608e-01</leafValues></_>
        <_>
          <internalNodes>
            0 -1 344 2.8762894216924906e-03</internalNodes>
          <leafValues>
            6.1719257384538651e-02 -5.2720642089843750e-01</leafValues></_>
        <_>
          <internalNodes>
            0 -1 32 -1.1737564578652382e-02</internalNodes>
          <leafValues>
            3.8724473118782043e-01 -8.7964609265327454e-02</leafValues></_>
        <_>
          <internalNodes>
            0 -1 26 1.8069206271320581e-03</internalNodes>
          <leafValues>
            -1.5722787380218506e-01 2.4623177945613861e-01</leafValues></_>
        <_>
          <internalNodes>
            0 -1 51 3.1347684562206268e-03</internalNodes>
          <leafValues>
            -1.5430104732513428e-01 2.4998438358306885e-01</leafValues></_>
        <_>
          <internalNodes>
            0 -1 126 -6.1411205679178238e-03</internalNodes>
          <leafValues>
            3.8411670923233032e-01 -1.0617114603519440e-01</leafValues></_>
        <_>
          <internalNodes>
            0 -1 294 -7.0328284054994583e-03</internalNodes>
          <leafValues>
            2.9017725586891174e-01 -1.2986922264099121e-01</leafValues></_>
        <_>
          <internalNodes>
            0 -1 296 -1.6898973844945431e-03</internalNodes>
          <leafValues>
            -4.1877993941307068e-01 8.0091968178749084e-02</leafValues></_>
        <_>
          <internalNodes>
            0 -1 155 -2.7838828973472118e-03</internalNodes>
          <leafValues>
            -5.6795799732208252e-01 5.7394616305828094e-02</leafValues></_>
        <_>
          <internalNodes>
            0 -1 158 3.3630167599767447e-03</internalNodes>
          <leafValues>
            -1.1287394165992737e-01 3.0837506055831909e-01</leafValues></_>
        <_>
          <internalNodes>
            0 -1 306 -6.8608135916292667e-04</internalNodes>
          <leafValues>
            -2.8091615438461304e-01 1.2243632227182388e-01</leafValues></_>
        <_>
          <internalNodes>
            0 -1 307 1.9848975352942944e-04</internalNodes>
          <leafValues>
            1.5584544837474823e-01 -2.2318144142627716e-01</leafValues></_>
        <_>
          <internalNodes>
            0 -1 335 -3.9087953045964241e-03</internalNodes>
          <leafValues>
            4.3917432427406311e-01 -7.0748209953308105e-02</leafValues></_>
        <_>
          <internalNodes>
            0 -1 55 -1.4300982002168894e-03</internalNodes>
          <leafValues>
            2.2774428129196167e-01 -1.5847314894199371e-01</leafValues></_>
        <_>
          <internalNodes>
            0 -1 305 -5.4101407295092940e-04</internalNodes>
          <leafValues>
            1.8897666037082672e-01 -1.7257557809352875e-01</leafValues></_>
        <_>
          <internalNodes>
            0 -1 8 1.9931007176637650e-02</internalNodes>
          <leafValues>
            -5.2485626190900803e-02 6.7940312623977661e-01</leafValues></_>
        <_>
          <internalNodes>
            0 -1 168 3.2367517706006765e-03</internalNodes>
          <leafValues>
            9.5294110476970673e-02 -4.0220674872398376e-01</leafValues></_></weakClassifiers></_>
    <!-- stage 5 -->
    <_>
      <maxWeakCount>38</maxWeakCount>
      <stageThreshold>-6.1265289783477783e-01</stageThreshold>
      <weakClassifiers>
        <_>
          <internalNodes>
            0 -1 202 6.2068249098956585e-03</internalNodes>
          <leafValues>
            3.6015325784683228e-01 -1.2621359527111053e-01</leafValues></_>
        <_>
          <internalNodes>
            0 -1 263 -1.0250585153698921e-02</internalNodes>
          <leafValues>
            3.6889892816543579e-01 -9.0641431510448456e-02</leafValues></_>
        <_>
          <internalNodes>
            0 -1 327 2.8699520044028759e-03</internalNodes>
          <leafValues>
            6.9186337292194366e-02 -5.1053738594055176e-01</leafValues></_>
        <_>
          <internalNodes>
            0 -1 229 5.1837395876646042e-03</internalNodes>
          <leafValues>
            -1.8464468419551849e-01 1.8928121030330658e-01</leafValues></_>
        <_>
          <internalNodes>
            0 -1 192 1.1448558652773499e-03</internalNodes>
          <leafValues>
            -1.6834248602390289e-01 2.4178285896778107e-01</leafValues></_>
        <_>
          <internalNodes>
            0 -1 262 -1.1069823522120714e-03</internalNodes>
          <leafValues>
            3.2806614041328430e-01 -1.8158163130283356e-01</leafValues></_>
        <_>
          <internalNodes>
            0 -1 39 -2.7341494569554925e-04</internalNodes>
          <leafValues>
            -2.4414655566215515e-01 1.7183336615562439e-01</leafValues></_>
        <_>
          <internalNodes>
            0 -1 114 -9.9464915692806244e-03</internalNodes>
          <leafValues>
            3.6116853356361389e-01 -1.1832096427679062e-01</leafValues></_>
        <_>
          <internalNodes>
            0 -1 59 -1.4215440023690462e-03</internalNodes>
          <leafValues>
            2.4875992536544800e-01 -1.5904547274112701e-01</leafValues></_>
        <_>
          <internalNodes>
            0 -1 109 -3.8483235985040665e-03</internalNodes>
          <leafValues>
            -5.5428910255432129e-01 6.9514133036136627e-02</leafValues></_>
        <_>
          <internalNodes>
            0 -1 242 -8.1341166514903307e-04</internalNodes>
          <leafValues>
            -4.0462663769721985e-01 8.5956044495105743e-02</leafValues></_>
        <_>
          <internalNodes>
            0 -1 188 -7.9451431520283222e-04</internalNodes>
          <leafValues>
            2.5123482942581177e-01 -1.4610165357589722e-01</leafValues></_>
        <_>
          <internalNodes>
            0 -1 153 3.2111600041389465e-02</internalNodes>
          <leafValues>
            1.0013988614082336e-01 -4.2074787616729736e-01</leafValues></_>
        <_>
          <internalNodes>
            0 -1 115 7.4431817047297955e-03</internalNodes>
          <leafValues>
            5.4656751453876495e-02 -6.4987087249755859e-01</leafValues></_>
        <_>
          <internalNodes>
            0 -1 276 7.8620212152600288e-03</internalNodes>
          <leafValues>
            1.0450294613838196e-01 -3.1287634372711182e-01</leafValues></_>
        <_>
          <internalNodes>
            0 -1 61 1.4511228539049625e-02</internalNodes>
          <leafValues>
            3.7049159407615662e-02 -8.9385205507278442e-01</leafValues></_>
        <_>
          <internalNodes>
            0 -1 199 7.7928497921675444e-04</internalNodes>
          <leafValues>
            -1.4186169207096100e-01 2.7523082494735718e-01</leafValues></_>
        <_>
          <internalNodes>
            0 -1 101 9.5683438703417778e-03</internalNodes>
          <leafValues>
            -1.2029119580984116e-01 3.0586180090904236e-01</leafValues></_>
        <_>
          <internalNodes>
            0 -1 286 2.7146514039486647e-03</internalNodes>
          <leafValues>
            1.0368307679891586e-01 -4.0340334177017212e-01</leafValues></_>
        <_>
          <internalNodes>
            0 -1 125 -4.8406957648694515e-03</internalNodes>
          <leafValues>
            -4.8414021730422974e-01 8.1186413764953613e-02</leafValues></_>
        <_>
          <internalNodes>
            0 -1 69 -7.0504266768693924e-03</internalNodes>
          <leafValues>
            1.9748616218566895e-01 -1.8896630406379700e-01</leafValues></_>
        <_>
          <internalNodes>
            0 -1 127 3.2982234843075275e-03</internalNodes>
          <leafValues>
            7.0390902459621429e-02 -5.1076263189315796e-01</leafValues></_>
        <_>
          <internalNodes>
            0 -1 149 -1.1778496205806732e-02</internalNodes>
          <leafValues>
            6.7295503616333008e-01 -5.9535756707191467e-02</leafValues></_>
        <_>
          <internalNodes>
            0 -1 162 1.6795278061181307e-03</internalNodes>
          <leafValues>
            -1.2530097365379333e-01 2.6659893989562988e-01</leafValues></_>
        <_>
          <internalNodes>
            0 -1 300 2.6098441332578659e-02</internalNodes>
          <leafValues>
            -6.7549765110015869e-02 5.0379461050033569e-01</leafValues></_>
        <_>
          <internalNodes>
            0 -1 119 -1.7892726464197040e-04</internalNodes>
          <leafValues>
            1.6042064130306244e-01 -2.2951982915401459e-01</leafValues></_>
        <_>
          <internalNodes>
            0 -1 142 1.0991799645125866e-03</internalNodes>
          <leafValues>
            -1.4656589925289154e-01 2.6192021369934082e-01</leafValues></_>
        <_>
          <internalNodes>
            0 -1 222 -4.2681181803345680e-03</internalNodes>
          <leafValues>
            -5.9994518756866455e-01 6.8707063794136047e-02</leafValues></_>
        <_>
          <internalNodes>
            0 -1 292 -4.2438120581209660e-03</internalNodes>
          <leafValues>
            -4.0706682205200195e-01 9.4717308878898621e-02</leafValues></_>
        <_>
          <internalNodes>
            0 -1 337 -5.5155827431008220e-04</internalNodes>
          <leafValues>
            2.1550107002258301e-01 -1.7744226753711700e-01</leafValues></_>
        <_>
          <internalNodes>
            0 -1 238 3.0133144464343786e-03</internalNodes>
          <leafValues>
            -8.2190126180648804e-02 5.1512229442596436e-01</leafValues></_>
        <_>
          <internalNodes>
            0 -1 315 2.8409885708242655e-03</internalNodes>
          <leafValues>
            1.0601439327001572e-01 -3.6558574438095093e-01</leafValues></_>
        <_>
          <internalNodes>
            0 -1 205 1.2995416764169931e-03</internalNodes>
          <leafValues>
            -1.0701707005500793e-01 3.6611521244049072e-01</leafValues></_>
        <_>
          <internalNodes>
            0 -1 266 -1.2699323706328869e-03</internalNodes>
          <leafValues>
            2.7722042798995972e-01 -1.4274336397647858e-01</leafValues></_>
        <_>
          <internalNodes>
            0 -1 219 -1.3452658895403147e-03</internalNodes>
          <leafValues>
            2.2910401225090027e-01 -1.6785313189029694e-01</leafValues></_>
        <_>
          <internalNodes>
            0 -1 0 3.5711885429918766e-03</internalNodes>
          <leafValues>
            9.1476775705814362e-02 -4.2620003223419189e-01</leafValues></_>
        <_>
          <internalNodes>
            0 -1 181 -2.0998148829676211e-04</internalNodes>
          <leafValues>
            1.8718571960926056e-01 -2.1684996783733368e-01</leafValues></_>
        <_>
          <internalNodes>
            0 -1 297 -5.1473230123519897e-03</internalNodes>
          <leafValues>
            -5.2975058555603027e-01 6.3739091157913208e-02</leafValues></_></weakClassifiers></_>
    <!-- stage 6 -->
    <_>
      <maxWeakCount>36</maxWeakCount>
      <stageThreshold>-4.9816694855690002e-01</stageThreshold>
      <weakClassifiers>
        <_>
          <internalNodes>
            0 -1 143 6.3114268705248833e-03</internalNodes>
          <leafValues>
            1.5681818127632141e-01 5.7297295331954956e-01</leafValues></_>
        <_>
          <internalNodes>
            0 -1 197 -5.1705185323953629e-03</internalNodes>
          <leafValues>
            4.2141008377075195e-01 -9.3340784311294556e-02</leafValues></_>
        <_>
          <internalNodes>
            0 -1 182 -7.9847511369735003e-04</internalNodes>
          <leafValues>
            1.7450825870037079e-01 -2.1587377786636353e-01</leafValues></_>
        <_>
          <internalNodes>
            0 -1 278 -1.4251494780182838e-02</internalNodes>
          <leafValues>
            2.4975840747356415e-01 -1.2334040552377701e-01</leafValues></_>
        <_>
          <internalNodes>
            0 -1 299 6.9711385294795036e-03</internalNodes>
          <leafValues>
            -1.5214388072490692e-01 3.0671417713165283e-01</leafValues></_>
        <_>
          <internalNodes>
            0 -1 163 3.7201156374067068e-03</internalNodes>
          <leafValues>
            -9.5174320042133331e-02 3.3709830045700073e-01</leafValues></_>
        <_>
          <internalNodes>
            0 -1 105 -2.4982551112771034e-03</internalNodes>
          <leafValues>
            -4.5565277338027954e-01 7.9951077699661255e-02</leafValues></_>
        <_>
          <internalNodes>
            0 -1 124 -3.4640245139598846e-03</internalNodes>
          <leafValues>
            2.3398727178573608e-01 -1.5911389887332916e-01</leafValues></_>
        <_>
          <internalNodes>
            0 -1 58 -2.7359053492546082e-03</internalNodes>
          <leafValues>
            -5.8872699737548828e-01 5.4916210472583771e-02</leafValues></_>
        <_>
          <internalNodes>
            0 -1 34 1.2110689654946327e-02</internalNodes>
          <leafValues>
            -1.3522557914257050e-01 2.9892584681510925e-01</leafValues></_>
        <_>
          <internalNodes>
            0 -1 230 -1.8720103427767754e-02</internalNodes>
          <leafValues>
            3.2125210762023926e-01 -1.0668674111366272e-01</leafValues></_>
        <_>
          <internalNodes>
            0 -1 81 5.2206371910870075e-03</internalNodes>
          <leafValues>
            -9.9850118160247803e-02 3.2802838087081909e-01</leafValues></_>
        <_>
          <internalNodes>
            0 -1 49 5.9234239161014557e-03</internalNodes>
          <leafValues>
            1.4819091558456421e-01 -2.4794971942901611e-01</leafValues></_>
        <_>
          <internalNodes>
            0 -1 316 -1.4733074931427836e-04</internalNodes>
          <leafValues>
            -1.9986894726753235e-01 1.6707469522953033e-01</leafValues></_>
        <_>
          <internalNodes>
            0 -1 282 1.0224832221865654e-03</internalNodes>
          <leafValues>
            -1.5366408228874207e-01 2.4420878291130066e-01</leafValues></_>
        <_>
          <internalNodes>
            0 -1 253 -1.1264133499935269e-03</internalNodes>
          <leafValues>
            2.3079101741313934e-01 -1.4547315239906311e-01</leafValues></_>
        <_>
          <internalNodes>
            0 -1 100 -5.6342799216508865e-03</internalNodes>
          <leafValues>
            2.4233834445476532e-01 -1.5812559425830841e-01</leafValues></_>
        <_>
          <internalNodes>
            0 -1 41 -2.8983429074287415e-03</internalNodes>
          <leafValues>
            -5.4521185159683228e-01 7.4028454720973969e-02</leafValues></_>
        <_>
          <internalNodes>
            0 -1 86 5.2960198372602463e-03</internalNodes>
          <leafValues>
            -1.3809585571289062e-01 2.9163780808448792e-01</leafValues></_>
        <_>
          <internalNodes>
            0 -1 203 4.9965700600296259e-04</internalNodes>
          <leafValues>
            -1.5048782527446747e-01 2.4022156000137329e-01</leafValues></_>
        <_>
          <internalNodes>
            0 -1 204 -1.1033918708562851e-03</internalNodes>
          <leafValues>
            2.5076863169670105e-01 -1.4475256204605103e-01</leafValues></_>
        <_>
          <internalNodes>
            0 -1 140 4.6210199594497681e-02</internalNodes>
          <leafValues>
            7.8518576920032501e-02 -5.7191306352615356e-01</leafValues></_>
        <_>
          <internalNodes>
            0 -1 232 4.9411099404096603e-02</internalNodes>
          <leafValues>
            8.0001458525657654e-02 -5.4765856266021729e-01</leafValues></_>
        <_>
          <internalNodes>
            0 -1 9 -3.3768370747566223e-02</internalNodes>
          <leafValues>
            3.7533411383628845e-01 -1.0058382898569107e-01</leafValues></_>
        <_>
          <internalNodes>
            0 -1 36 1.4837081544101238e-03</internalNodes>
          <leafValues>
            -1.6115228831768036e-01 2.2736565768718719e-01</leafValues></_>
        <_>
          <internalNodes>
            0 -1 7 1.9379181321710348e-03</internalNodes>
          <leafValues>
            6.9094635546207428e-02 -5.0281733274459839e-01</leafValues></_>
        <_>
          <internalNodes>
            0 -1 213 -7.1444129571318626e-03</internalNodes>
          <leafValues>
            -3.5174909234046936e-01 1.0040539503097534e-01</leafValues></_>
        <_>
          <internalNodes>
            0 -1 320 -4.7323540784418583e-03</internalNodes>
          <leafValues>
            2.8329336643218994e-01 -1.4053592085838318e-01</leafValues></_>
        <_>
          <internalNodes>
            0 -1 333 1.4384986832737923e-02</internalNodes>
          <leafValues>
            4.6121038496494293e-02 -8.8599050045013428e-01</leafValues></_>
        <_>
          <internalNodes>
            0 -1 20 2.6000374928116798e-03</internalNodes>
          <leafValues>
            9.9745355546474457e-02 -3.3634361624717712e-01</leafValues></_>
        <_>
          <internalNodes>
            0 -1 21 5.5714747868478298e-03</internalNodes>
          <leafValues>
            6.0504566878080368e-02 -5.5963736772537231e-01</leafValues></_>
        <_>
          <internalNodes>
            0 -1 260 -7.6431203633546829e-03</internalNodes>
          <leafValues>
            2.0644585788249969e-01 -1.7572481930255890e-01</leafValues></_>
        <_>
          <internalNodes>
            0 -1 329 -4.0342742577195168e-03</internalNodes>
          <leafValues>
            2.9705652594566345e-01 -1.2307147681713104e-01</leafValues></_>
        <_>
          <internalNodes>
            0 -1 211 1.6361426562070847e-02</internalNodes>
          <leafValues>
            -1.1057031899690628e-01 3.2345271110534668e-01</leafValues></_>
        <_>
          <internalNodes>
            0 -1 321 -1.0923491790890694e-02</internalNodes>
          <leafValues>
            6.2664955854415894e-01 -5.1243565976619720e-02</leafValues></_>
        <_>
          <internalNodes>
            0 -1 256 -3.6885142326354980e-02</internalNodes>
          <leafValues>
            -5.7158964872360229e-01 6.3422463834285736e-02</leafValues></_></weakClassifiers></_>
    <!-- stage 7 -->
    <_>
      <maxWeakCount>42</maxWeakCount>
      <stageThreshold>-5.7986843585968018e-01</stageThreshold>
      <weakClassifiers>
        <_>
          <internalNodes>
            0 -1 209 -4.3414451181888580e-02</internalNodes>
          <leafValues>
            -6.9999998807907104e-01 3.1239670515060425e-01</leafValues></_>
        <_>
          <internalNodes>
            0 -1 33 -4.1219047270715237e-03</internalNodes>
          <leafValues>
            3.2305553555488586e-01 -1.1198826879262924e-01</leafValues></_>
        <_>
          <internalNodes>
            0 -1 311 4.3148230761289597e-03</internalNodes>
          <leafValues>
            -1.3387958705425262e-01 2.5022551417350769e-01</leafValues></_>
        <_>
          <internalNodes>
            0 -1 302 -4.5448802411556244e-03</internalNodes>
          <leafValues>
            -8.7650287151336670e-01 3.3095091581344604e-02</leafValues></_>
        <_>
          <internalNodes>
            0 -1 339 1.4306020457297564e-03</internalNodes>
          <leafValues>
            -1.7935629189014435e-01 2.2552701830863953e-01</leafValues></_>
        <_>
          <internalNodes>
            0 -1 98 3.5767934750765562e-03</internalNodes>
          <leafValues>
            -6.7787662148475647e-02 3.4413680434226990e-01</leafValues></_>
        <_>
          <internalNodes>
            0 -1 135 1.1854456737637520e-02</internalNodes>
          <leafValues>
            3.5649597644805908e-02 -6.0621398687362671e-01</leafValues></_>
        <_>
          <internalNodes>
            0 -1 88 -2.2909324616193771e-03</internalNodes>
          <leafValues>
            1.8570463359355927e-01 -1.7828899621963501e-01</leafValues></_>
        <_>
          <internalNodes>
            0 -1 39 2.7992930263280869e-03</internalNodes>
          <leafValues>
            5.7586964219808578e-02 -4.7261950373649597e-01</leafValues></_>
        <_>
          <internalNodes>
            0 -1 165 -6.3313654391095042e-04</internalNodes>
          <leafValues>
            1.6855469346046448e-01 -2.0164011418819427e-01</leafValues></_>
        <_>
          <internalNodes>
            0 -1 92 -3.1683803535997868e-03</internalNodes>
          <leafValues>
            3.1647932529449463e-01 -1.1139636486768723e-01</leafValues></_>
        <_>
          <internalNodes>
            0 -1 28 2.4310393258929253e-02</internalNodes>
          <leafValues>
            -5.9902828186750412e-02 5.0697904825210571e-01</leafValues></_>
        <_>
          <internalNodes>
            0 -1 71 4.9104914069175720e-03</internalNodes>
          <leafValues>
            5.1252156496047974e-02 -6.5856534242630005e-01</leafValues></_>
        <_>
          <internalNodes>
            0 -1 38 -5.0348956137895584e-03</internalNodes>
          <leafValues>
            2.3770880699157715e-01 -1.3449396193027496e-01</leafValues></_>
        <_>
          <internalNodes>
            0 -1 283 -1.0797982104122639e-03</internalNodes>
          <leafValues>
            1.6841997206211090e-01 -1.7503279447555542e-01</leafValues></_>
        <_>
          <internalNodes>
            0 -1 46 -1.7888708971440792e-03</internalNodes>
          <leafValues>
            -4.4166669249534607e-01 7.2911515831947327e-02</leafValues></_>
        <_>
          <internalNodes>
            0 -1 208 -1.0951163247227669e-02</internalNodes>
          <leafValues>
            -4.6989378333091736e-01 5.5393513292074203e-02</leafValues></_>
        <_>
          <internalNodes>
            0 -1 75 -2.2564546670764685e-03</internalNodes>
          <leafValues>
            2.5713017582893372e-01 -1.1451572924852371e-01</leafValues></_>
        <_>
          <internalNodes>
            0 -1 298 -4.8027560114860535e-03</internalNodes>
          <leafValues>
            -4.4252187013626099e-01 7.6619461178779602e-02</leafValues></_>
        <_>
          <internalNodes>
            0 -1 319 -3.7360314279794693e-02</internalNodes>
          <leafValues>
            6.7883408069610596e-01 -4.3468628078699112e-02</leafValues></_>
        <_>
          <internalNodes>
            0 -1 224 -1.5515298582613468e-02</internalNodes>
          <leafValues>
            3.2902047038078308e-01 -8.8648848235607147e-02</leafValues></_>
        <_>
          <internalNodes>
            0 -1 122 2.2317752242088318e-02</internalNodes>
          <leafValues>
            -1.1075962334871292e-01 3.1923910975456238e-01</leafValues></_>
        <_>
          <internalNodes>
            0 -1 64 3.2998397946357727e-02</internalNodes>
          <leafValues>
            9.5354229211807251e-02 -5.4503679275512695e-01</leafValues></_>
        <_>
          <internalNodes>
            0 -1 345 -1.2378511019051075e-03</internalNodes>
          <leafValues>
            -2.9382014274597168e-01 1.0070720314979553e-01</leafValues></_>
        <_>
          <internalNodes>
            0 -1 164 -4.4618202373385429e-03</internalNodes>
          <leafValues>
            3.3580851554870605e-01 -9.4751991331577301e-02</leafValues></_>
        <_>
          <internalNodes>
            0 -1 267 3.3965909387916327e-03</internalNodes>
          <leafValues>
            -9.2812925577163696e-02 3.6540409922599792e-01</leafValues></_>
        <_>
          <internalNodes>
            0 -1 18 -2.1199308335781097e-02</internalNodes>
          <leafValues>
            -2.9626294970512390e-01 1.0639458149671555e-01</leafValues></_>
        <_>
          <internalNodes>
            0 -1 59 1.3275914825499058e-03</internalNodes>
          <leafValues>
            -1.1559354513883591e-01 2.7713021636009216e-01</leafValues></_>
        <_>
          <internalNodes>
            0 -1 85 -1.4194869436323643e-03</internalNodes>
          <leafValues>
            2.5963169336318970e-01 -1.1580470949411392e-01</leafValues></_>
        <_>
          <internalNodes>
            0 -1 194 -2.6530776172876358e-02</internalNodes>
          <leafValues>
            -5.8237606287002563e-01 5.3991962224245071e-02</leafValues></_>
        <_>
          <internalNodes>
            0 -1 116 3.3549079671502113e-03</internalNodes>
          <leafValues>
            -1.0816470533609390e-01 2.9584917426109314e-01</leafValues></_>
        <_>
          <internalNodes>
            0 -1 116 -4.6448595821857452e-03</internalNodes>
          <leafValues>
            3.7224352359771729e-01 -1.1436123400926590e-01</leafValues></_>
        <_>
          <internalNodes>
            0 -1 317 -3.0070682987570763e-03</internalNodes>
          <leafValues>
            -6.5444809198379517e-01 6.1240009963512421e-02</leafValues></_>
        <_>
          <internalNodes>
            0 -1 289 3.2472675666213036e-03</internalNodes>
          <leafValues>
            4.9973480403423309e-02 -6.0264426469802856e-01</leafValues></_>
        <_>
          <internalNodes>
            0 -1 244 4.9100294709205627e-03</internalNodes>
          <leafValues>
            -1.4161975681781769e-01 2.4591046571731567e-01</leafValues></_>
        <_>
          <internalNodes>
            0 -1 312 8.9783053845167160e-03</internalNodes>
          <leafValues>
            9.6306860446929932e-02 -3.7055447697639465e-01</leafValues></_>
        <_>
          <internalNodes>
            0 -1 247 -1.7037212848663330e-02</internalNodes>
          <leafValues>
            4.5982226729393005e-01 -7.6683327555656433e-02</leafValues></_>
        <_>
          <internalNodes>
            0 -1 145 -8.2074105739593506e-03</internalNodes>
          <leafValues>
            3.0739107728004456e-01 -1.0041014850139618e-01</leafValues></_>
        <_>
          <internalNodes>
            0 -1 145 1.7308663576841354e-02</internalNodes>
          <leafValues>
            -5.3031668066978455e-02 6.2228935956954956e-01</leafValues></_>
        <_>
          <internalNodes>
            0 -1 325 2.8312674257904291e-03</internalNodes>
          <leafValues>
            6.0172133147716522e-02 -6.5922588109970093e-01</leafValues></_>
        <_>
          <internalNodes>
            0 -1 147 1.8872562795877457e-03</internalNodes>
          <leafValues>
            9.7447372972965240e-02 -3.5964456200599670e-01</leafValues></_>
        <_>
          <internalNodes>
            0 -1 148 -4.1153258644044399e-03</internalNodes>
          <leafValues>
            -5.0291472673416138e-01 6.4429275691509247e-02</leafValues></_></weakClassifiers></_>
    <!-- stage 8 -->
    <_>
      <maxWeakCount>41</maxWeakCount>
      <stageThreshold>-6.0599988698959351e-01</stageThreshold>
      <weakClassifiers>
        <_>
          <internalNodes>
            0 -1 134 5.2266292273998260e-02</internalNodes>
          <leafValues>
            3.1561461091041565e-01 -6.5217393636703491e-01</leafValues></_>
        <_>
          <internalNodes>
            0 -1 83 2.3938728496432304e-02</internalNodes>
          <leafValues>
            -3.6927711218595505e-02 6.0347300767898560e-01</leafValues></_>
        <_>
          <internalNodes>
            0 -1 99 -1.6211619600653648e-02</internalNodes>
          <leafValues>
            4.0217059850692749e-01 -1.4247193932533264e-01</leafValues></_>
        <_>
          <internalNodes>
            0 -1 190 -1.5977859497070312e-02</internalNodes>
          <leafValues>
            -5.1115667819976807e-01 1.1759603023529053e-01</leafValues></_>
        <_>
          <internalNodes>
            0 -1 139 -4.3900972232222557e-03</internalNodes>
          <leafValues>
            2.0659919083118439e-01 -1.7739866673946381e-01</leafValues></_>
        <_>
          <internalNodes>
            0 -1 254 -9.9357776343822479e-03</internalNodes>
          <leafValues>
            2.3576654493808746e-01 -1.6339376568794250e-01</leafValues></_>
        <_>
          <internalNodes>
            0 -1 5 -2.0770266652107239e-01</internalNodes>
          <leafValues>
            3.7245231866836548e-01 -7.8239336609840393e-02</leafValues></_>
        <_>
          <internalNodes>
            0 -1 323 4.9720723181962967e-03</internalNodes>
          <leafValues>
            -1.1458664387464523e-01 3.1514364480972290e-01</leafValues></_>
        <_>
          <internalNodes>
            0 -1 313 -6.3338840845972300e-04</internalNodes>
          <leafValues>
            2.2919015586376190e-01 -1.6541682183742523e-01</leafValues></_>
        <_>
          <internalNodes>
            0 -1 121 -1.9444869831204414e-02</internalNodes>
          <leafValues>
            -7.2624731063842773e-01 5.9164416044950485e-02</leafValues></_>
        <_>
          <internalNodes>
            0 -1 293 -5.1117769908159971e-04</internalNodes>
          <leafValues>
            -2.7710187435150146e-01 1.0448999702930450e-01</leafValues></_>
        <_>
          <internalNodes>
            0 -1 93 -2.2551189176738262e-03</internalNodes>
          <leafValues>
            -2.4238407611846924e-01 1.4626805484294891e-01</leafValues></_>
        <_>
          <internalNodes>
            0 -1 56 1.3520985376089811e-03</internalNodes>
          <leafValues>
            -1.4087899029254913e-01 2.7374330163002014e-01</leafValues></_>
        <_>
          <internalNodes>
            0 -1 104 2.8962910175323486e-02</internalNodes>
          <leafValues>
            -8.8379390537738800e-02 4.2737990617752075e-01</leafValues></_>
        <_>
          <internalNodes>
            0 -1 78 -6.7014722153544426e-03</internalNodes>
          <leafValues>
            2.9497390985488892e-01 -1.5158310532569885e-01</leafValues></_>
        <_>
          <internalNodes>
            0 -1 35 5.0486936233937740e-03</internalNodes>
          <leafValues>
            7.7861391007900238e-02 -4.0485399961471558e-01</leafValues></_>
        <_>
          <internalNodes>
            0 -1 223 1.2780306860804558e-02</internalNodes>
          <leafValues>
            -6.8903155624866486e-02 4.6429073810577393e-01</leafValues></_>
        <_>
          <internalNodes>
            0 -1 281 2.0873539149761200e-02</internalNodes>
          <leafValues>
            -1.0372653603553772e-01 3.0729451775550842e-01</leafValues></_>
        <_>
          <internalNodes>
            0 -1 243 -2.5730855762958527e-02</internalNodes>
          <leafValues>
            -4.9490818381309509e-01 6.8165242671966553e-02</leafValues></_>
        <_>
          <internalNodes>
            0 -1 160 1.5112299006432295e-03</internalNodes>
          <leafValues>
            -1.0674368590116501e-01 2.9921814799308777e-01</leafValues></_>
        <_>
          <internalNodes>
            0 -1 24 5.0993554294109344e-02</internalNodes>
          <leafValues>
            -5.5015411227941513e-02 5.5262398719787598e-01</leafValues></_>
        <_>
          <internalNodes>
            0 -1 183 -8.9403614401817322e-03</internalNodes>
          <leafValues>
            -6.0777503252029419e-01 5.6685827672481537e-02</leafValues></_>
        <_>
          <internalNodes>
            0 -1 128 -5.3264233283698559e-03</internalNodes>
          <leafValues>
            2.8746071457862854e-01 -1.0990027338266373e-01</leafValues></_>
        <_>
          <internalNodes>
            0 -1 251 1.7830048454925418e-03</internalNodes>
          <leafValues>
            -1.3522644340991974e-01 2.6678824424743652e-01</leafValues></_>
        <_>
          <internalNodes>
            0 -1 1 -1.8346929550170898e-01</internalNodes>
          <leafValues>
            4.7473090887069702e-01 -6.4266942441463470e-02</leafValues></_>
        <_>
          <internalNodes>
            0 -1 80 1.2919287197291851e-02</internalNodes>
          <leafValues>
            -9.5616370439529419e-02 3.4193417429924011e-01</leafValues></_>
        <_>
          <internalNodes>
            0 -1 60 2.4753334000706673e-02</internalNodes>
          <leafValues>
            7.6255075633525848e-02 -5.6985515356063843e-01</leafValues></_>
        <_>
          <internalNodes>
            0 -1 103 2.4988390505313873e-03</internalNodes>
          <leafValues>
            6.4456127583980560e-02 -5.9680700302124023e-01</leafValues></_>
        <_>
          <internalNodes>
            0 -1 87 -3.6710567772388458e-02</internalNodes>
          <leafValues>
            5.4095762968063354e-01 -5.9727728366851807e-02</leafValues></_>
        <_>
          <internalNodes>
            0 -1 331 4.3611205182969570e-03</internalNodes>
          <leafValues>
            -8.3452552556991577e-02 3.9203774929046631e-01</leafValues></_>
        <_>
          <internalNodes>
            0 -1 65 -8.0341994762420654e-02</internalNodes>
          <leafValues>
            4.1983303427696228e-01 -7.5586214661598206e-02</leafValues></_>
        <_>
          <internalNodes>
            0 -1 13 2.3201953154057264e-03</internalNodes>
          <leafValues>
            8.0933727324008942e-02 -4.4398310780525208e-01</leafValues></_>
        <_>
          <internalNodes>
            0 -1 44 5.8686477132141590e-03</internalNodes>
          <leafValues>
            -9.1976083815097809e-02 4.0487357974052429e-01</leafValues></_>
        <_>
          <internalNodes>
            0 -1 10 6.6793267615139484e-03</internalNodes>
          <leafValues>
            7.4593596160411835e-02 -4.9041897058486938e-01</leafValues></_>
        <_>
          <internalNodes>
            0 -1 201 6.2534570693969727e-02</internalNodes>
          <leafValues>
            4.2472939938306808e-02 -7.6097416877746582e-01</leafValues></_>
        <_>
          <internalNodes>
            0 -1 258 -1.2746972963213921e-02</internalNodes>
          <leafValues>
            7.7680724859237671e-01 -5.1525399088859558e-02</leafValues></_>
        <_>
          <internalNodes>
            0 -1 336 4.0031438693404198e-03</internalNodes>
          <leafValues>
            -1.0886534303426743e-01 2.9335930943489075e-01</leafValues></_>
        <_>
          <internalNodes>
            0 -1 287 2.5978144258260727e-03</internalNodes>
          <leafValues>
            7.2965018451213837e-02 -4.9049234390258789e-01</leafValues></_>
        <_>
          <internalNodes>
            0 -1 228 6.0225632041692734e-03</internalNodes>
          <leafValues>
            -1.0568475723266602e-01 2.9486200213432312e-01</leafValues></_>
        <_>
          <internalNodes>
            0 -1 174 3.7770778872072697e-03</internalNodes>
          <leafValues>
            4.1525468230247498e-02 -8.4833729267120361e-01</leafValues></_>
        <_>
          <internalNodes>
            0 -1 189 -1.7033316195011139e-02</internalNodes>
          <leafValues>
            -7.1897459030151367e-01 4.0293570607900620e-02</leafValues></_></weakClassifiers></_>
    <!-- stage 9 -->
    <_>
      <maxWeakCount>48</maxWeakCount>
      <stageThreshold>-5.5152940750122070e-01</stageThreshold>
      <weakClassifiers>
        <_>
          <internalNodes>
            0 -1 221 9.9670421332120895e-04</internalNodes>
          <leafValues>
            1.4060446619987488e-01 4.9693250656127930e-01</leafValues></_>
        <_>
          <internalNodes>
            0 -1 257 9.5455360133200884e-04</internalNodes>
          <leafValues>
            -9.6653662621974945e-02 2.8011757135391235e-01</leafValues></_>
        <_>
          <internalNodes>
            0 -1 235 -2.6600584387779236e-03</internalNodes>
          <leafValues>
            3.1219279766082764e-01 -1.0340858250856400e-01</leafValues></_>
        <_>
          <internalNodes>
            0 -1 239 -2.0315153524279594e-03</internalNodes>
          <leafValues>
            2.4746608734130859e-01 -1.6501300036907196e-01</leafValues></_>
        <_>
          <internalNodes>
            0 -1 237 3.7388382479548454e-03</internalNodes>
          <leafValues>
            6.5350182354450226e-02 -4.4666194915771484e-01</leafValues></_>
        <_>
          <internalNodes>
            0 -1 291 9.4292312860488892e-03</internalNodes>
          <leafValues>
            -9.1279879212379456e-02 3.5807499289512634e-01</leafValues></_>
        <_>
          <internalNodes>
            0 -1 47 -1.1968117207288742e-02</internalNodes>
          <leafValues>
            3.7239408493041992e-01 -8.5136972367763519e-02</leafValues></_>
        <_>
          <internalNodes>
            0 -1 212 -1.6757119446992874e-02</internalNodes>
          <leafValues>
            -6.5761566162109375e-01 3.9282370358705521e-02</leafValues></_>
        <_>
          <internalNodes>
            0 -1 215 3.3026013523340225e-02</internalNodes>
          <leafValues>
            -5.4418571293354034e-02 7.8581172227859497e-01</leafValues></_>
        <_>
          <internalNodes>
            0 -1 271 -9.1386828571557999e-03</internalNodes>
          <leafValues>
            -8.2592165470123291e-01 5.4129280149936676e-02</leafValues></_>
        <_>
          <internalNodes>
            0 -1 151 -2.3917842656373978e-02</internalNodes>
          <leafValues>
            2.8446114063262939e-01 -1.1210799962282181e-01</leafValues></_>
        <_>
          <internalNodes>
            0 -1 310 2.7890182100236416e-03</internalNodes>
          <leafValues>
            1.3997425138950348e-01 -2.2390884160995483e-01</leafValues></_>
        <_>
          <internalNodes>
            0 -1 326 -1.7794377636164427e-03</internalNodes>
          <leafValues>
            -4.3273982405662537e-01 6.5354660153388977e-02</leafValues></_>
        <_>
          <internalNodes>
            0 -1 154 4.4963289052248001e-02</internalNodes>
          <leafValues>
            -4.4272713363170624e-02 7.0187491178512573e-01</leafValues></_>
        <_>
          <internalNodes>
            0 -1 314 1.2383724097162485e-03</internalNodes>
          <leafValues>
            -1.2648931145668030e-01 2.2259263694286346e-01</leafValues></_>
        <_>
          <internalNodes>
            0 -1 269 3.4701474942266941e-03</internalNodes>
          <leafValues>
            -1.1764068901538849e-01 2.6794669032096863e-01</leafValues></_>
        <_>
          <internalNodes>
            0 -1 324 -2.8834338299930096e-03</internalNodes>
          <leafValues>
            -3.3490657806396484e-01 9.9890507757663727e-02</leafValues></_>
        <_>
          <internalNodes>
            0 -1 62 1.2466488406062126e-02</internalNodes>
          <leafValues>
            1.3508024811744690e-01 -2.3013821244239807e-01</leafValues></_>
        <_>
          <internalNodes>
            0 -1 325 2.1373946219682693e-03</internalNodes>
          <leafValues>
            6.4963564276695251e-02 -4.7766450047492981e-01</leafValues></_>
        <_>
          <internalNodes>
            0 -1 227 -1.5829771291464567e-03</internalNodes>
          <leafValues>
            3.0511152744293213e-01 -1.0741344839334488e-01</leafValues></_>
        <_>
          <internalNodes>
            0 -1 198 -9.5988670364022255e-03</internalNodes>
          <leafValues>
            4.5299530029296875e-01 -6.7494548857212067e-02</leafValues></_>
        <_>
          <internalNodes>
            0 -1 63 -4.8995558172464371e-03</internalNodes>
          <leafValues>
            4.0775439143180847e-01 -8.1558041274547577e-02</leafValues></_>
        <_>
          <internalNodes>
            0 -1 216 -3.9220824837684631e-03</internalNodes>
          <leafValues>
            -5.0977236032485962e-01 7.6425187289714813e-02</leafValues></_>
        <_>
          <internalNodes>
            0 -1 6 7.5659016147255898e-04</internalNodes>
          <leafValues>
            9.8166339099407196e-02 -3.1767576932907104e-01</leafValues></_>
        <_>
          <internalNodes>
            0 -1 250 -3.2833428122103214e-03</internalNodes>
          <leafValues>
            -5.7977122068405151e-01 5.5344406515359879e-02</leafValues></_>
        <_>
          <internalNodes>
            0 -1 258 7.3696807958185673e-03</internalNodes>
          <leafValues>
            -8.3058886229991913e-02 4.3888160586357117e-01</leafValues></_>
        <_>
          <internalNodes>
            0 -1 234 4.8831216990947723e-03</internalNodes>
          <leafValues>
            -7.7824115753173828e-02 4.2067006230354309e-01</leafValues></_>
        <_>
          <internalNodes>
            0 -1 187 4.9099784344434738e-02</internalNodes>
          <leafValues>
            4.8253644257783890e-02 -7.1700388193130493e-01</leafValues></_>
        <_>
          <internalNodes>
            0 -1 231 -4.3812375515699387e-03</internalNodes>
          <leafValues>
            1.7771907150745392e-01 -1.8588881194591522e-01</leafValues></_>
        <_>
          <internalNodes>
            0 -1 270 8.3280056715011597e-03</internalNodes>
          <leafValues>
            -1.0919777303934097e-01 2.7798739075660706e-01</leafValues></_>
        <_>
          <internalNodes>
            0 -1 3 -5.8043968677520752e-01</internalNodes>
          <leafValues>
            5.1565438508987427e-01 -5.3527411073446274e-02</leafValues></_>
        <_>
          <internalNodes>
            0 -1 73 2.2118682041764259e-02</internalNodes>
          <leafValues>
            -5.4036363959312439e-02 5.3956407308578491e-01</leafValues></_>
        <_>
          <internalNodes>
            0 -1 107 -7.1868216618895531e-03</internalNodes>
          <leafValues>
            3.6361780762672424e-01 -8.2212246954441071e-02</leafValues></_>
        <_>
          <internalNodes>
            0 -1 170 -1.9472301937639713e-03</internalNodes>
          <leafValues>
            -4.2055624723434448e-01 7.4148543179035187e-02</leafValues></_>
        <_>
          <internalNodes>
            0 -1 14 3.6048071342520416e-04</internalNodes>
          <leafValues>
            1.4921124279499054e-01 -2.1036168932914734e-01</leafValues></_>
        <_>
          <internalNodes>
            0 -1 274 -2.9872346203774214e-04</internalNodes>
          <leafValues>
            1.4847001433372498e-01 -1.9901026785373688e-01</leafValues></_>
        <_>
          <internalNodes>
            0 -1 108 -2.2674586623907089e-02</internalNodes>
          <leafValues>
            -2.4170082807540894e-01 1.2391640990972519e-01</leafValues></_>
        <_>
          <internalNodes>
            0 -1 106 -7.3416732251644135e-02</internalNodes>
          <leafValues>
            4.1620281338691711e-01 -6.9411501288414001e-02</leafValues></_>
        <_>
          <internalNodes>
            0 -1 246 5.2201007492840290e-03</internalNodes>
          <leafValues>
            3.7579670548439026e-02 -8.1448167562484741e-01</leafValues></_>
        <_>
          <internalNodes>
            0 -1 279 -7.1985339745879173e-03</internalNodes>
          <leafValues>
            3.6101382970809937e-01 -8.2482717931270599e-02</leafValues></_>
        <_>
          <internalNodes>
            0 -1 53 6.9560534320771694e-03</internalNodes>
          <leafValues>
            -1.2292839586734772e-01 2.3402562737464905e-01</leafValues></_>
        <_>
          <internalNodes>
            0 -1 184 -1.8671309575438499e-02</internalNodes>
          <leafValues>
            -5.0086849927902222e-01 6.3668847084045410e-02</leafValues></_>
        <_>
          <internalNodes>
            0 -1 241 -3.8661449216306210e-03</internalNodes>
          <leafValues>
            2.7583166956901550e-01 -1.2075050175189972e-01</leafValues></_>
        <_>
          <internalNodes>
            0 -1 191 -3.2951608300209045e-03</internalNodes>
          <leafValues>
            -2.4942933022975922e-01 1.3118943572044373e-01</leafValues></_>
        <_>
          <internalNodes>
            0 -1 161 1.3897792436182499e-02</internalNodes>
          <leafValues>
            5.9056501835584641e-02 -5.6948137283325195e-01</leafValues></_>
        <_>
          <internalNodes>
            0 -1 171 -6.9309100508689880e-03</internalNodes>
          <leafValues>
            6.1356592178344727e-01 -5.1017846912145615e-02</leafValues></_>
        <_>
          <internalNodes>
            0 -1 43 -4.6281353570520878e-03</internalNodes>
          <leafValues>
            -6.7895603179931641e-01 4.5172147452831268e-02</leafValues></_>
        <_>
          <internalNodes>
            0 -1 235 -2.8642155230045319e-03</internalNodes>
          <leafValues>
            3.1199905276298523e-01 -1.0223055630922318e-01</leafValues></_></weakClassifiers></_></stages>
  <features>
    <_>
      <rects>
        <_>
          0 0 3 2 -1.</_>
        <_>
          1 0 1 2 3.</_></rects>
      <tilted>0</tilted></_>
    <_>
      <rects>
        <_>
          0 0 5 18 -1.</_>
        <_>
          0 9 5 9 2.</_></rects>
      <tilted>0</tilted></_>
    <_>
      <rects>
        <_>
          0 0 13 16 -1.</_>
        <_>
          0 8 13 8 2.</_></rects>
      <tilted>0</tilted></_>
    <_>
      <rects>
        <_>
          0 0 16 20 -1.</_>
        <_>
          0 10 16 10 2.</_></rects>
      <tilted>0</tilted></_>
    <_>
      <rects>
        <_>
          0 1 2 2 -1.</_>
        <_>
          0 1 1 1 2.</_>
        <_>
          1 2 1 1 2.</_></rects>
      <tilted>0</tilted></_>
    <_>
      <rects>
        <_>
          0 1 19 15 -1.</_>
        <_>
          0 6 19 5 3.</_></rects>
      <tilted>0</tilted></_>
    <_>
      <rects>
        <_>
          0 3 2 2 -1.</_>
        <_>
          0 3 1 1 2.</_>
        <_>
          1 4 1 1 2.</_></rects>
      <tilted>0</tilted></_>
    <_>
      <rects>
        <_>
          0 4 2 2 -1.</_>
        <_>
          0 4 1 1 2.</_>
        <_>
          1 5 1 1 2.</_></rects>
      <tilted>0</tilted></_>
    <_>
      <rects>
        <_>
          0 4 1 10 -1.</_>
        <_>
          0 9 1 5 2.</_></rects>
      <tilted>0</tilted></_>
    <_>
      <rects>
        <_>
          0 7 6 8 -1.</_>
        <_>
          2 7 2 8 3.</_></rects>
      <tilted>0</tilted></_>
    <_>
      <rects>
        <_>
          0 8 6 1 -1.</_>
        <_>
          2 8 2 1 3.</_></rects>
      <tilted>0</tilted></_>
    <_>
      <rects>
        <_>
          0 10 3 1 -1.</_>
        <_>
          1 10 1 1 3.</_></rects>
      <tilted>0</tilted></_>
    <_>
      <rects>
        <_>
          0 12 1 3 -1.</_>
        <_>
          0 13 1 1 3.</_></rects>
      <tilted>0</tilted></_>
    <_>
      <rects>
        <_>
          0 13 1 3 -1.</_>
        <_>
          0 14 1 1 3.</_></rects>
      <tilted>0</tilted></_>
    <_>
      <rects>
        <_>
          0 13 4 6 -1.</_>
        <_>
          2 13 2 6 2.</_></rects>
      <tilted>0</tilted></_>
    <_>
      <rects>
        <_>
          0 13 9 3 -1.</_>
        <_>
          3 13 3 3 3.</_></rects>
      <tilted>0</tilted></_>
    <_>
      <rects>
        <_>
          0 14 4 5 -1.</_>
        <_>
          2 14 2 5 2.</_></rects>
      <tilted>0</tilted></_>
    <_>
      <rects>
        <_>
          0 14 6 6 -1.</_>
        <_>
          0 14 3 3 2.</_>
        <_>
          3 17 3 3 2.</_></rects>
      <tilted>0</tilted></_>
    <_>
      <rects>
        <_>
          0 14 20 4 -1.</_>
        <_>
          0 16 20 2 2.</_></rects>
      <tilted>0</tilted></_>
    <_>
      <rects>
        <_>
          0 15 6 3 -1.</_>
        <_>
          0 16 6 1 3.</_></rects>
      <tilted>0</tilted></_>
    <_>
      <rects>
        <_>
          0 16 2 3 -1.</_>
        <_>
          0 17 2 1 3.</_></rects>
      <tilted>0</tilted></_>
    <_>
      <rects>
        <_>
          0 17 2 3 -1.</_>
        <_>
          0 18 2 1 3.</_></rects>
      <tilted>0</tilted></_>
    <_>
      <rects>
        <_>
          0 18 11 2 -1.</_>
        <_>
          0 19 11 1 2.</_></rects>
      <tilted>0</tilted></_>
    <_>
      <rects>
        <_>
          1 1 2 6 -1.</_>
        <_>
          1 4 2 3 2.</_></rects>
      <tilted>0</tilted></_>
    <_>
      <rects>
        <_>
          1 2 12 3 -1.</_>
        <_>
          5 2 4 3 3.</_></rects>
      <tilted>0</tilted></_>
    <_>
      <rects>
        <_>
          1 3 9 9 -1.</_>
        <_>
          4 3 3 9 3.</_></rects>
      <tilted>0</tilted></_>
    <_>
      <rects>
        <_>
          1 4 2 8 -1.</_>
        <_>
          1 4 1 4 2.</_>
        <_>
          2 8 1 4 2.</_></rects>
      <tilted>0</tilted></_>
    <_>
      <rects>
        <_>
          1 4 2 13 -1.</_>
        <_>
          2 4 1 13 2.</_></rects>
      <tilted>0</tilted></_>
    <_>
      <rects>
        <_>
          1 4 2 12 -1.</_>
        <_>
          1 8 2 4 3.</_></rects>
      <tilted>0</tilted></_>
    <_>
      <rects>
        <_>
          1 5 3 6 -1.</_>
        <_>
          2 5 1 6 3.</_></rects>
      <tilted>0</tilted></_>
    <_>
      <rects>
        <_>
          1 5 6 2 -1.</_>
        <_>
          1 5 3 1 2.</_>
        <_>
          4 6 3 1 2.</_></rects>
      <tilted>0</tilted></_>
    <_>
      <rects>
        <_>
          1 6 2 4 -1.</_>
        <_>
          1 6 1 2 2.</_>
        <_>
          2 8 1 2 2.</_></rects>
      <tilted>0</tilted></_>
    <_>
      <rects>
        <_>
          1 6 2 10 -1.</_>
        <_>
          2 6 1 10 2.</_></rects>
      <tilted>0</tilted></_>
    <_>
      <rects>
        <_>
          1 7 3 3 -1.</_>
        <_>
          2 7 1 3 3.</_></rects>
      <tilted>0</tilted></_>
    <_>
      <rects>
        <_>
          1 7 6 5 -1.</_>
        <_>
          3 7 2 5 3.</_></rects>
      <tilted>0</tilted></_>
    <_>
      <rects>
        <_>
          1 7 4 3 -1.</_>
        <_>
          1 8 4 1 3.</_></rects>
      <tilted>0</tilted></_>
    <_>
      <rects>
        <_>
          1 8 2 4 -1.</_>
        <_>
          1 8 1 2 2.</_>
        <_>
          2 10 1 2 2.</_></rects>
      <tilted>0</tilted></_>
    <_>
      <rects>
        <_>
          1 8 2 10 -1.</_>
        <_>
          1 8 1 5 2.</_>
        <_>
          2 13 1 5 2.</_></rects>
      <tilted>0</tilted></_>
    <_>
      <rects>
        <_>
          1 8 2 12 -1.</_>
        <_>
          2 8 1 12 2.</_></rects>
      <tilted>0</tilted></_>
    <_>
      <rects>
        <_>
          1 9 2 2 -1.</_>
        <_>
          1 9 1 1 2.</_>
        <_>
          2 10 1 1 2.</_></rects>
      <tilted>0</tilted></_>
    <_>
      <rects>
        <_>
          1 11 2 1 -1.</_>
        <_>
          2 11 1 1 2.</_></rects>
      <tilted>0</tilted></_>
    <_>
      <rects>
        <_>
          1 11 1 3 -1.</_>
        <_>
          1 12 1 1 3.</_></rects>
      <tilted>0</tilted></_>
    <_>
      <rects>
        <_>
          1 12 2 1 -1.</_>
        <_>
          2 12 1 1 2.</_></rects>
      <tilted>0</tilted></_>
    <_>
      <rects>
        <_>
          1 12 1 3 -1.</_>
        <_>
          1 13 1 1 3.</_></rects>
      <tilted>0</tilted></_>
    <_>
      <rects>
        <_>
          1 12 6 1 -1.</_>
        <_>
          3 12 2 1 3.</_></rects>
      <tilted>0</tilted></_>
    <_>
      <rects>
        <_>
          1 12 6 4 -1.</_>
        <_>
          3 12 2 4 3.</_></rects>
      <tilted>0</tilted></_>
    <_>
      <rects>
        <_>
          1 13 1 2 -1.</_>
        <_>
          1 14 1 1 2.</_></rects>
      <tilted>0</tilted></_>
    <_>
      <rects>
        <_>
          1 13 4 6 -1.</_>
        <_>
          1 13 2 3 2.</_>
        <_>
          3 16 2 3 2.</_></rects>
      <tilted>0</tilted></_>
    <_>
      <rects>
        <_>
          1 14 6 4 -1.</_>
        <_>
          1 14 3 2 2.</_>
        <_>
          4 16 3 2 2.</_></rects>
      <tilted>0</tilted></_>
    <_>
      <rects>
        <_>
          1 14 18 2 -1.</_>
        <_>
          7 14 6 2 3.</_></rects>
      <tilted>0</tilted></_>
    <_>
      <rects>
        <_>
          1 15 3 5 -1.</_>
        <_>
          2 15 1 5 3.</_></rects>
      <tilted>0</tilted></_>
    <_>
      <rects>
        <_>
          2 0 2 17 -1.</_>
        <_>
          3 0 1 17 2.</_></rects>
      <tilted>0</tilted></_>
    <_>
      <rects>
        <_>
          2 0 6 7 -1.</_>
        <_>
          4 0 2 7 3.</_></rects>
      <tilted>0</tilted></_>
    <_>
      <rects>
        <_>
          2 5 6 3 -1.</_>
        <_>
          4 5 2 3 3.</_></rects>
      <tilted>0</tilted></_>
    <_>
      <rects>
        <_>
          2 5 6 10 -1.</_>
        <_>
          4 5 2 10 3.</_></rects>
      <tilted>0</tilted></_>
    <_>
      <rects>
        <_>
          2 6 1 4 -1.</_>
        <_>
          2 8 1 2 2.</_></rects>
      <tilted>0</tilted></_>
    <_>
      <rects>
        <_>
          2 6 4 2 -1.</_>
        <_>
          2 6 2 1 2.</_>
        <_>
          4 7 2 1 2.</_></rects>
      <tilted>0</tilted></_>
    <_>
      <rects>
        <_>
          2 9 4 8 -1.</_>
        <_>
          2 9 2 4 2.</_>
        <_>
          4 13 2 4 2.</_></rects>
      <tilted>0</tilted></_>
    <_>
      <rects>
        <_>
          2 10 2 2 -1.</_>
        <_>
          2 10 1 1 2.</_>
        <_>
          3 11 1 1 2.</_></rects>
      <tilted>0</tilted></_>
    <_>
      <rects>
        <_>
          2 12 2 4 -1.</_>
        <_>
          2 12 1 2 2.</_>
        <_>
          3 14 1 2 2.</_></rects>
      <tilted>0</tilted></_>
    <_>
      <rects>
        <_>
          2 12 4 6 -1.</_>
        <_>
          4 12 2 6 2.</_></rects>
      <tilted>0</tilted></_>
    <_>
      <rects>
        <_>
          2 12 10 2 -1.</_>
        <_>
          2 12 5 1 2.</_>
        <_>
          7 13 5 1 2.</_></rects>
      <tilted>0</tilted></_>
    <_>
      <rects>
        <_>
          2 12 12 6 -1.</_>
        <_>
          8 12 6 6 2.</_></rects>
      <tilted>0</tilted></_>
    <_>
      <rects>
        <_>
          2 13 3 2 -1.</_>
        <_>
          3 13 1 2 3.</_></rects>
      <tilted>0</tilted></_>
    <_>
      <rects>
        <_>
          2 13 7 6 -1.</_>
        <_>
          2 15 7 2 3.</_></rects>
      <tilted>0</tilted></_>
    <_>
      <rects>
        <_>
          2 13 18 5 -1.</_>
        <_>
          11 13 9 5 2.</_></rects>
      <tilted>0</tilted></_>
    <_>
      <rects>
        <_>
          2 14 4 6 -1.</_>
        <_>
          2 14 2 3 2.</_>
        <_>
          4 17 2 3 2.</_></rects>
      <tilted>0</tilted></_>
    <_>
      <rects>
        <_>
          2 15 16 2 -1.</_>
        <_>
          10 15 8 2 2.</_></rects>
      <tilted>0</tilted></_>
    <_>
      <rects>
        <_>
          2 16 1 3 -1.</_>
        <_>
          2 17 1 1 3.</_></rects>
      <tilted>0</tilted></_>
    <_>
      <rects>
        <_>
          3 0 9 6 -1.</_>
        <_>
          3 2 9 2 3.</_></rects>
      <tilted>0</tilted></_>
    <_>
      <rects>
        <_>
          3 1 10 2 -1.</_>
        <_>
          3 1 5 1 2.</_>
        <_>
          8 2 5 1 2.</_></rects>
      <tilted>0</tilted></_>
    <_>
      <rects>
        <_>
          3 2 3 1 -1.</_>
        <_>
          4 2 1 1 3.</_></rects>
      <tilted>0</tilted></_>
    <_>
      <rects>
        <_>
          3 2 4 2 -1.</_>
        <_>
          3 3 4 1 2.</_></rects>
      <tilted>0</tilted></_>
    <_>
      <rects>
        <_>
          3 2 14 1 -1.</_>
        <_>
          10 2 7 1 2.</_></rects>
      <tilted>0</tilted></_>
    <_>
      <rects>
        <_>
          3 4 2 2 -1.</_>
        <_>
          3 5 2 1 2.</_></rects>
      <tilted>0</tilted></_>
    <_>
      <rects>
        <_>
          3 4 6 2 -1.</_>
        <_>
          3 4 3 1 2.</_>
        <_>
          6 5 3 1 2.</_></rects>
      <tilted>0</tilted></_>
    <_>
      <rects>
        <_>
          3 6 1 3 -1.</_>
        <_>
          3 7 1 1 3.</_></rects>
      <tilted>0</tilted></_>
    <_>
      <rects>
        <_>
          3 8 2 1 -1.</_>
        <_>
          4 8 1 1 2.</_></rects>
      <tilted>0</tilted></_>
    <_>
      <rects>
        <_>
          3 8 6 2 -1.</_>
        <_>
          6 8 3 2 2.</_></rects>
      <tilted>0</tilted></_>
    <_>
      <rects>
        <_>
          3 11 2 8 -1.</_>
        <_>
          3 15 2 4 2.</_></rects>
      <tilted>0</tilted></_>
    <_>
      <rects>
        <_>
          3 13 6 3 -1.</_>
        <_>
          5 13 2 3 3.</_></rects>
      <tilted>0</tilted></_>
    <_>
      <rects>
        <_>
          3 14 2 4 -1.</_>
        <_>
          3 16 2 2 2.</_></rects>
      <tilted>0</tilted></_>
    <_>
      <rects>
        <_>
          3 14 4 4 -1.</_>
        <_>
          3 14 2 2 2.</_>
        <_>
          5 16 2 2 2.</_></rects>
      <tilted>0</tilted></_>
    <_>
      <rects>
        <_>
          3 14 8 4 -1.</_>
        <_>
          3 14 4 2 2.</_>
        <_>
          7 16 4 2 2.</_></rects>
      <tilted>0</tilted></_>
    <_>
      <rects>
        <_>
          3 15 6 4 -1.</_>
        <_>
          3 15 3 2 2.</_>
        <_>
          6 17 3 2 2.</_></rects>
      <tilted>0</tilted></_>
    <_>
      <rects>
        <_>
          3 16 4 2 -1.</_>
        <_>
          3 16 2 1 2.</_>
        <_>
          5 17 2 1 2.</_></rects>
      <tilted>0</tilted></_>
    <_>
      <rects>
        <_>
          3 16 10 3 -1.</_>
        <_>
          3 17 10 1 3.</_></rects>
      <tilted>0</tilted></_>
    <_>
      <rects>
        <_>
          4 0 1 18 -1.</_>
        <_>
          4 6 1 6 3.</_></rects>
      <tilted>0</tilted></_>
    <_>
      <rects>
        <_>
          4 0 9 2 -1.</_>
        <_>
          4 1 9 1 2.</_></rects>
      <tilted>0</tilted></_>
    <_>
      <rects>
        <_>
          4 1 6 2 -1.</_>
        <_>
          4 1 3 1 2.</_>
        <_>
          7 2 3 1 2.</_></rects>
      <tilted>0</tilted></_>
    <_>
      <rects>
        <_>
          4 1 6 6 -1.</_>
        <_>
          7 1 3 6 2.</_></rects>
      <tilted>0</tilted></_>
    <_>
      <rects>
        <_>
          4 1 4 14 -1.</_>
        <_>
          4 8 4 7 2.</_></rects>
      <tilted>0</tilted></_>
    <_>
      <rects>
        <_>
          4 2 1 4 -1.</_>
        <_>
          4 4 1 2 2.</_></rects>
      <tilted>0</tilted></_>
    <_>
      <rects>
        <_>
          4 4 3 3 -1.</_>
        <_>
          5 4 1 3 3.</_></rects>
      <tilted>0</tilted></_>
    <_>
      <rects>
        <_>
          4 6 4 3 -1.</_>
        <_>
          6 6 2 3 2.</_></rects>
      <tilted>0</tilted></_>
    <_>
      <rects>
        <_>
          4 13 1 6 -1.</_>
        <_>
          4 15 1 2 3.</_></rects>
      <tilted>0</tilted></_>
    <_>
      <rects>
        <_>
          4 13 3 6 -1.</_>
        <_>
          5 13 1 6 3.</_></rects>
      <tilted>0</tilted></_>
    <_>
      <rects>
        <_>
          4 14 15 1 -1.</_>
        <_>
          9 14 5 1 3.</_></rects>
      <tilted>0</tilted></_>
    <_>
      <rects>
        <_>
          4 15 6 2 -1.</_>
        <_>
          4 15 3 1 2.</_>
        <_>
          7 16 3 1 2.</_></rects>
      <tilted>0</tilted></_>
    <_>
      <rects>
        <_>
          4 15 8 4 -1.</_>
        <_>
          4 15 4 2 2.</_>
        <_>
          8 17 4 2 2.</_></rects>
      <tilted>0</tilted></_>
    <_>
      <rects>
        <_>
          4 16 13 3 -1.</_>
        <_>
          4 17 13 1 3.</_></rects>
      <tilted>0</tilted></_>
    <_>
      <rects>
        <_>
          4 18 12 2 -1.</_>
        <_>
          4 19 12 1 2.</_></rects>
      <tilted>0</tilted></_>
    <_>
      <rects>
        <_>
          4 18 14 2 -1.</_>
        <_>
          4 19 14 1 2.</_></rects>
      <tilted>0</tilted></_>
    <_>
      <rects>
        <_>
          5 0 2 2 -1.</_>
        <_>
          5 0 1 1 2.</_>
        <_>
          6 1 1 1 2.</_></rects>
      <tilted>0</tilted></_>
    <_>
      <rects>
        <_>
          5 2 4 13 -1.</_>
        <_>
          7 2 2 13 2.</_></rects>
      <tilted>0</tilted></_>
    <_>
      <rects>
        <_>
          5 4 1 3 -1.</_>
        <_>
          5 5 1 1 3.</_></rects>
      <tilted>0</tilted></_>
    <_>
      <rects>
        <_>
          5 8 10 12 -1.</_>
        <_>
          5 8 5 6 2.</_>
        <_>
          10 14 5 6 2.</_></rects>
      <tilted>0</tilted></_>
    <_>
      <rects>
        <_>
          5 11 4 4 -1.</_>
        <_>
          5 11 2 2 2.</_>
        <_>
          7 13 2 2 2.</_></rects>
      <tilted>0</tilted></_>
    <_>
      <rects>
        <_>
          5 11 12 8 -1.</_>
        <_>
          5 11 6 4 2.</_>
        <_>
          11 15 6 4 2.</_></rects>
      <tilted>0</tilted></_>
    <_>
      <rects>
        <_>
          5 13 1 3 -1.</_>
        <_>
          5 14 1 1 3.</_></rects>
      <tilted>0</tilted></_>
    <_>
      <rects>
        <_>
          5 14 4 4 -1.</_>
        <_>
          5 14 2 2 2.</_>
        <_>
          7 16 2 2 2.</_></rects>
      <tilted>0</tilted></_>
    <_>
      <rects>
        <_>
          5 16 1 2 -1.</_>
        <_>
          5 17 1 1 2.</_></rects>
      <tilted>0</tilted></_>
    <_>
      <rects>
        <_>
          6 2 4 15 -1.</_>
        <_>
          6 7 4 5 3.</_></rects>
      <tilted>0</tilted></_>
    <_>
      <rects>
        <_>
          6 6 2 6 -1.</_>
        <_>
          6 8 2 2 3.</_></rects>
      <tilted>0</tilted></_>
    <_>
      <rects>
        <_>
          6 6 3 6 -1.</_>
        <_>
          6 8 3 2 3.</_></rects>
      <tilted>0</tilted></_>
    <_>
      <rects>
        <_>
          6 8 3 2 -1.</_>
        <_>
          7 8 1 2 3.</_></rects>
      <tilted>0</tilted></_>
    <_>
      <rects>
        <_>
          6 8 4 3 -1.</_>
        <_>
          6 9 4 1 3.</_></rects>
      <tilted>0</tilted></_>
    <_>
      <rects>
        <_>
          6 8 8 3 -1.</_>
        <_>
          6 9 8 1 3.</_></rects>
      <tilted>0</tilted></_>
    <_>
      <rects>
        <_>
          6 9 4 2 -1.</_>
        <_>
          6 10 4 1 2.</_></rects>
      <tilted>0</tilted></_>
    <_>
      <rects>
        <_>
          6 9 11 6 -1.</_>
        <_>
          6 12 11 3 2.</_></rects>
      <tilted>0</tilted></_>
    <_>
      <rects>
        <_>
          6 12 8 4 -1.</_>
        <_>
          6 12 4 2 2.</_>
        <_>
          10 14 4 2 2.</_></rects>
      <tilted>0</tilted></_>
    <_>
      <rects>
        <_>
          6 12 9 3 -1.</_>
        <_>
          6 13 9 1 3.</_></rects>
      <tilted>0</tilted></_>
    <_>
      <rects>
        <_>
          6 13 8 6 -1.</_>
        <_>
          6 15 8 2 3.</_></rects>
      <tilted>0</tilted></_>
    <_>
      <rects>
        <_>
          6 14 4 2 -1.</_>
        <_>
          8 14 2 2 2.</_></rects>
      <tilted>0</tilted></_>
    <_>
      <rects>
        <_>
          6 15 11 3 -1.</_>
        <_>
          6 16 11 1 3.</_></rects>
      <tilted>0</tilted></_>
    <_>
      <rects>
        <_>
          6 16 3 2 -1.</_>
        <_>
          7 16 1 2 3.</_></rects>
      <tilted>0</tilted></_>
    <_>
      <rects>
        <_>
          6 16 10 2 -1.</_>
        <_>
          6 16 5 1 2.</_>
        <_>
          11 17 5 1 2.</_></rects>
      <tilted>0</tilted></_>
    <_>
      <rects>
        <_>
          6 17 3 1 -1.</_>
        <_>
          7 17 1 1 3.</_></rects>
      <tilted>0</tilted></_>
    <_>
      <rects>
        <_>
          6 18 8 2 -1.</_>
        <_>
          6 18 4 1 2.</_>
        <_>
          10 19 4 1 2.</_></rects>
      <tilted>0</tilted></_>
    <_>
      <rects>
        <_>
          6 18 9 2 -1.</_>
        <_>
          6 19 9 1 2.</_></rects>
      <tilted>0</tilted></_>
    <_>
      <rects>
        <_>
          7 2 2 6 -1.</_>
        <_>
          7 2 1 3 2.</_>
        <_>
          8 5 1 3 2.</_></rects>
      <tilted>0</tilted></_>
    <_>
      <rects>
        <_>
          7 2 4 6 -1.</_>
        <_>
          7 5 4 3 2.</_></rects>
      <tilted>0</tilted></_>
    <_>
      <rects>
        <_>
          7 4 12 2 -1.</_>
        <_>
          11 4 4 2 3.</_></rects>
      <tilted>0</tilted></_>
    <_>
      <rects>
        <_>
          7 5 4 3 -1.</_>
        <_>
          7 6 4 1 3.</_></rects>
      <tilted>0</tilted></_>
    <_>
      <rects>
        <_>
          7 6 6 5 -1.</_>
        <_>
          10 6 3 5 2.</_></rects>
      <tilted>0</tilted></_>
    <_>
      <rects>
        <_>
          7 6 10 2 -1.</_>
        <_>
          7 7 10 1 2.</_></rects>
      <tilted>0</tilted></_>
    <_>
      <rects>
        <_>
          7 7 7 3 -1.</_>
        <_>
          7 8 7 1 3.</_></rects>
      <tilted>0</tilted></_>
    <_>
      <rects>
        <_>
          7 8 12 1 -1.</_>
        <_>
          11 8 4 1 3.</_></rects>
      <tilted>0</tilted></_>
    <_>
      <rects>
        <_>
          7 9 7 3 -1.</_>
        <_>
          7 10 7 1 3.</_></rects>
      <tilted>0</tilted></_>
    <_>
      <rects>
        <_>
          7 10 2 6 -1.</_>
        <_>
          7 12 2 2 3.</_></rects>
      <tilted>0</tilted></_>
    <_>
      <rects>
        <_>
          7 13 6 6 -1.</_>
        <_>
          7 16 6 3 2.</_></rects>
      <tilted>0</tilted></_>
    <_>
      <rects>
        <_>
          7 13 9 6 -1.</_>
        <_>
          7 15 9 2 3.</_></rects>
      <tilted>0</tilted></_>
    <_>
      <rects>
        <_>
          7 14 2 3 -1.</_>
        <_>
          7 15 2 1 3.</_></rects>
      <tilted>0</tilted></_>
    <_>
      <rects>
        <_>
          7 15 6 3 -1.</_>
        <_>
          7 16 6 1 3.</_></rects>
      <tilted>0</tilted></_>
    <_>
      <rects>
        <_>
          7 16 5 2 -1.</_>
        <_>
          7 17 5 1 2.</_></rects>
      <tilted>0</tilted></_>
    <_>
      <rects>
        <_>
          7 16 7 3 -1.</_>
        <_>
          7 17 7 1 3.</_></rects>
      <tilted>0</tilted></_>
    <_>
      <rects>
        <_>
          7 16 10 3 -1.</_>
        <_>
          7 17 10 1 3.</_></rects>
      <tilted>0</tilted></_>
    <_>
      <rects>
        <_>
          7 17 3 1 -1.</_>
        <_>
          8 17 1 1 3.</_></rects>
      <tilted>0</tilted></_>
    <_>
      <rects>
        <_>
          7 17 2 2 -1.</_>
        <_>
          8 17 1 2 2.</_></rects>
      <tilted>0</tilted></_>
    <_>
      <rects>
        <_>
          7 17 7 2 -1.</_>
        <_>
          7 18 7 1 2.</_></rects>
      <tilted>0</tilted></_>
    <_>
      <rects>
        <_>
          7 18 2 2 -1.</_>
        <_>
          7 18 1 1 2.</_>
        <_>
          8 19 1 1 2.</_></rects>
      <tilted>0</tilted></_>
    <_>
      <rects>
        <_>
          8 0 8 6 -1.</_>
        <_>
          8 2 8 2 3.</_></rects>
      <tilted>0</tilted></_>
    <_>
      <rects>
        <_>
          8 0 9 4 -1.</_>
        <_>
          8 2 9 2 2.</_></rects>
      <tilted>0</tilted></_>
    <_>
      <rects>
        <_>
          8 2 5 9 -1.</_>
        <_>
          8 5 5 3 3.</_></rects>
      <tilted>0</tilted></_>
    <_>
      <rects>
        <_>
          8 3 4 16 -1.</_>
        <_>
          8 3 2 8 2.</_>
        <_>
          10 11 2 8 2.</_></rects>
      <tilted>0</tilted></_>
    <_>
      <rects>
        <_>
          8 4 2 2 -1.</_>
        <_>
          8 4 1 1 2.</_>
        <_>
          9 5 1 1 2.</_></rects>
      <tilted>0</tilted></_>
    <_>
      <rects>
        <_>
          8 5 3 9 -1.</_>
        <_>
          8 8 3 3 3.</_></rects>
      <tilted>0</tilted></_>
    <_>
      <rects>
        <_>
          8 5 6 2 -1.</_>
        <_>
          8 6 6 1 2.</_></rects>
      <tilted>0</tilted></_>
    <_>
      <rects>
        <_>
          8 7 6 2 -1.</_>
        <_>
          8 7 3 1 2.</_>
        <_>
          11 8 3 1 2.</_></rects>
      <tilted>0</tilted></_>
    <_>
      <rects>
        <_>
          8 7 6 3 -1.</_>
        <_>
          11 7 3 3 2.</_></rects>
      <tilted>0</tilted></_>
    <_>
      <rects>
        <_>
          8 8 1 3 -1.</_>
        <_>
          8 9 1 1 3.</_></rects>
      <tilted>0</tilted></_>
    <_>
      <rects>
        <_>
          8 9 8 1 -1.</_>
        <_>
          12 9 4 1 2.</_></rects>
      <tilted>0</tilted></_>
    <_>
      <rects>
        <_>
          8 10 4 1 -1.</_>
        <_>
          10 10 2 1 2.</_></rects>
      <tilted>0</tilted></_>
    <_>
      <rects>
        <_>
          8 10 3 3 -1.</_>
        <_>
          8 11 3 1 3.</_></rects>
      <tilted>0</tilted></_>
    <_>
      <rects>
        <_>
          8 11 3 3 -1.</_>
        <_>
          9 11 1 3 3.</_></rects>
      <tilted>0</tilted></_>
    <_>
      <rects>
        <_>
          8 12 4 2 -1.</_>
        <_>
          8 13 4 1 2.</_></rects>
      <tilted>0</tilted></_>
    <_>
      <rects>
        <_>
          8 12 6 6 -1.</_>
        <_>
          8 14 6 2 3.</_></rects>
      <tilted>0</tilted></_>
    <_>
      <rects>
        <_>
          8 12 8 3 -1.</_>
        <_>
          8 13 8 1 3.</_></rects>
      <tilted>0</tilted></_>
    <_>
      <rects>
        <_>
          8 13 3 3 -1.</_>
        <_>
          8 14 3 1 3.</_></rects>
      <tilted>0</tilted></_>
    <_>
      <rects>
        <_>
          8 13 9 3 -1.</_>
        <_>
          8 14 9 1 3.</_></rects>
      <tilted>0</tilted></_>
    <_>
      <rects>
        <_>
          8 14 2 2 -1.</_>
        <_>
          8 14 1 1 2.</_>
        <_>
          9 15 1 1 2.</_></rects>
      <tilted>0</tilted></_>
    <_>
      <rects>
        <_>
          8 15 4 2 -1.</_>
        <_>
          8 16 4 1 2.</_></rects>
      <tilted>0</tilted></_>
    <_>
      <rects>
        <_>
          8 16 5 2 -1.</_>
        <_>
          8 17 5 1 2.</_></rects>
      <tilted>0</tilted></_>
    <_>
      <rects>
        <_>
          8 16 6 3 -1.</_>
        <_>
          8 17 6 1 3.</_></rects>
      <tilted>0</tilted></_>
    <_>
      <rects>
        <_>
          8 17 2 2 -1.</_>
        <_>
          8 17 1 1 2.</_>
        <_>
          9 18 1 1 2.</_></rects>
      <tilted>0</tilted></_>
    <_>
      <rects>
        <_>
          8 18 2 2 -1.</_>
        <_>
          8 19 2 1 2.</_></rects>
      <tilted>0</tilted></_>
    <_>
      <rects>
        <_>
          8 18 3 2 -1.</_>
        <_>
          8 19 3 1 2.</_></rects>
      <tilted>0</tilted></_>
    <_>
      <rects>
        <_>
          8 18 5 2 -1.</_>
        <_>
          8 19 5 1 2.</_></rects>
      <tilted>0</tilted></_>
    <_>
      <rects>
        <_>
          9 0 1 6 -1.</_>
        <_>
          9 2 1 2 3.</_></rects>
      <tilted>0</tilted></_>
    <_>
      <rects>
        <_>
          9 0 2 4 -1.</_>
        <_>
          9 2 2 2 2.</_></rects>
      <tilted>0</tilted></_>
    <_>
      <rects>
        <_>
          9 0 5 4 -1.</_>
        <_>
          9 2 5 2 2.</_></rects>
      <tilted>0</tilted></_>
    <_>
      <rects>
        <_>
          9 1 1 2 -1.</_>
        <_>
          9 2 1 1 2.</_></rects>
      <tilted>0</tilted></_>
    <_>
      <rects>
        <_>
          9 1 2 2 -1.</_>
        <_>
          9 2 2 1 2.</_></rects>
      <tilted>0</tilted></_>
    <_>
      <rects>
        <_>
